{
	"bias_hidden": {
		"matrix_n_cols": 1,
		"matrix_n_rows": 100,
		"matrix_values": [
			0.652021044699183,
			0.339688609479376,
			-0.78201529776015,
			0.192700758109999,
			0.652418177137169,
			-0.17724438586465,
			1.07720570127456,
			0.468186290996377,
			-0.36480243443506,
			-0.82710250707915,
			0.163180359501726,
			-1.30994313930334,
			0.421395620800771,
			-0.0105266581208,
			0.0219529104790458,
			0.22294297054106,
			-0.38918226518898,
			-0.59760050692722,
			-0.83644601556049,
			-0.60634373132301,
			0.369144076843545,
			-0.55780166585824,
			0.653990442145653,
			0.0168184523864576,
			0.203228956684416,
			-0.806442895954,
			1.07573388189377,
			0.506472878724128,
			-0.24322015048147,
			0.949785687821655,
			0.941572800842388,
			0.945202833237582,
			-0.56813992594293,
			-0.6641937365432,
			0.797635112202896,
			-0.36772416585847,
			0.158678475888492,
			0.319027546241069,
			-0.64052455669726,
			-0.76439007835503,
			-0.27231002642167,
			-0.57510403612259,
			-0.27097696712574,
			-0.3694236924975,
			0.534797671937323,
			-0.36028708996894,
			-1.03955004581918,
			1.24879462340069,
			-0.93987327838709,
			-0.64173447361958,
			0.237770697650882,
			-0.45191402989321,
			-0.95145726173584,
			-1.20538673348369,
			-0.09541724722533,
			0.150963793557134,
			-0.09818589506291,
			-0.29577312253013,
			0.643154709380709,
			-0.34532316084792,
			-0.15103674883551,
			-0.13484305049299,
			0.633300108363847,
			-0.6286775776277,
			0.6454580430945,
			-0.33521400627863,
			-0.1216297251996,
			0.224653762815016,
			0.0263173553574437,
			0.7402838991104,
			0.794128204330991,
			-0.53104751458382,
			0.484000498989098,
			0.485438090229987,
			-0.44544219778673,
			0.524859853704988,
			0.115388901818976,
			0.643311958771361,
			-0.48672787233531,
			-1.12287437451947,
			-0.22426395462265,
			-0.21352638942761,
			-0.46417333196068,
			-1.34360982145383,
			-1.07868096971144,
			0.162715514535046,
			-0.00475932560809,
			-0.38114070327272,
			-0.24217843919221,
			0.626027425117461,
			0.482658508477699,
			0.0318590283128828,
			0.0303105023873416,
			-0.29998011207221,
			-0.38155775585965,
			-0.61991263351049,
			1.17560696079612,
			0.40570188109027,
			0.0171060947637108,
			0.941420527781504
		]
	},
	"bias_output": {
		"matrix_n_cols": 1,
		"matrix_n_rows": 13,
		"matrix_values": [
			0.0706769582718523,
			0.0272681454588853,
			-0.43258180336973,
			0.858695555359717,
			-0.28690819160703,
			0.62578336495569,
			0.588206686179529,
			0.652372646202388,
			-0.36573654771424,
			1.02435723425437,
			-0.15976575971158,
			0.886966439328226,
			-0.13160802993257
		]
	},
	"structure": {
		"hidden_nodes": 100,
		"input_nodes": 43,
		"output_nodes": 13
	},
	"weights_input_hidden": {
		"matrix_n_cols": 43,
		"matrix_n_rows": 100,
		"matrix_values": [
			-0.14247130666428,
			-0.16251484905143,
			-1.5369133116401,
			-1.0457356263926,
			0.0330162858849959,
			-0.1004412150969,
			-0.02838875246189,
			0.829943669101288,
			0.339864437735265,
			0.168982934908596,
			0.266806378947444,
			-0.17494958535145,
			0.487762244233982,
			0.194403440344673,
			0.754578963595893,
			-0.30706535251202,
			-0.56465927602563,
			0.883927477599045,
			0.934894236165403,
			-0.76495097671145,
			-0.08056709121131,
			1.15486864990928,
			-0.15782150450001,
			0.139706125652953,
			-0.93709576011116,
			0.275307464215833,
			-0.25718272733056,
			0.0874294828742981,
			0.378419315323204,
			0.24233625921842,
			0.803280341504975,
			-0.14869797442457,
			-1.20690772890975,
			-0.27242220440184,
			-0.11725058640119,
			-0.09842382612837,
			-0.53687585772413,
			0.466930686783591,
			-0.41173532923455,
			-0.26473288408232,
			0.0386092792020276,
			-0.00478977711149,
			1.03426344245301,
			0.634240135598414,
			-0.37789218796212,
			-0.25631435595219,
			-0.50158004701223,
			0.77642657401754,
			0.645349054987127,
			-0.28544486632748,
			-0.08510592663655,
			0.490275993269123,
			0.61631960994657,
			0.778229531334172,
			0.0436255996113145,
			0.902707193596638,
			-0.20248481428908,
			-0.36350384635245,
			0.165003346581252,
			0.00943293858340722,
			0.178693571469753,
			-0.56762754765377,
			-0.38374221439998,
			-0.95683218852033,
			-0.54959889782967,
			0.78950476555616,
			0.854176101606697,
			-0.61010979375708,
			-0.23484926512855,
			-0.19015911564859,
			-0.15217268431919,
			-0.54242365914373,
			-0.33757424407125,
			-0.57111025666314,
			-0.20249742965981,
			0.642899457283753,
			1.1676875626509,
			0.681513365394254,
			1.20207265856344,
			0.851988214690093,
			-0.22274797464192,
			0.960395929708568,
			-0.24822234068508,
			-0.37147597762812,
			0.297848771808463,
			-0.23974715356003,
			-0.47454812067444,
			1.40188495229924,
			0.543279978535556,
			0.214221389881659,
			-1.77772811395813,
			0.814068654484418,
			-0.41986032062761,
			0.0524232516710116,
			0.304896883401893,
			0.381836241242859,
			-0.80041893066238,
			0.807183159436048,
			-0.99485195185097,
			-0.91982182575877,
			-0.96195421892684,
			-0.66266442151882,
			0.303590976103531,
			-0.01169301416505,
			-0.77657542966049,
			-0.4856599805034,
			1.06410755362613,
			-1.12370618957138,
			0.279259680928235,
			-0.54728003145827,
			0.31757184438737,
			1.38393946314297,
			2.04759834056268,
			-0.74774679385421,
			0.870869658893404,
			-0.31228056026605,
			-1.21699747791885,
			-0.0788647496638,
			-0.88646018489272,
			-0.02858311654261,
			-0.19514329087925,
			0.405685207523165,
			0.511687538266183,
			2.21079595879784,
			0.40453885641754,
			-0.58177439845547,
			0.343680378810926,
			-0.93421946069244,
			0.932790586691026,
			-0.60264026425796,
			-0.63742877377084,
			-1.90171493543122,
			-1.4502995651177,
			0.183106526861148,
			0.580256736288803,
			1.21113087197154,
			0.147580271123681,
			0.362727261417316,
			0.135736821808297,
			-0.27278243677181,
			0.849512482625791,
			-0.41395864846917,
			-0.43873660104344,
			0.957888095179526,
			0.329634838831101,
			-0.55153353953549,
			1.31980092520673,
			1.3405717809152,
			0.225250745698983,
			0.344709412733316,
			-0.54573227825532,
			0.822549020331462,
			0.407302792520389,
			-1.9231828193071,
			0.230705444847218,
			-2.03393382077225,
			-1.35035936859019,
			-0.93651511948585,
			-0.03213115372673,
			0.486540876968247,
			-0.18077078195463,
			-0.06251644940609,
			1.27730987291278,
			1.32503695638003,
			-0.40754853851763,
			0.337908826988072,
			-1.1083746290303,
			0.558333516840608,
			-0.26250765206163,
			0.633969840805799,
			0.525319887460211,
			0.779224419570395,
			-0.59060992581737,
			-0.39553427367921,
			-1.83708681308485,
			-0.07849701715475,
			-0.95901881814434,
			0.417113137324698,
			-0.79399572118501,
			0.710988470744558,
			0.0194177748004849,
			-0.13126365929476,
			0.988834847250109,
			0.631573936958021,
			-0.53758105433406,
			-0.16948501120102,
			0.797934597086493,
			-1.0470139498334,
			-0.80068488186896,
			0.389106327495239,
			0.662185189306459,
			-0.35717344887925,
			-1.09688093119458,
			0.410385419292259,
			0.797204092623571,
			0.421896281678762,
			-0.77569830121893,
			-0.722789062689,
			0.713101848610849,
			-0.09272724376292,
			-0.06601863627,
			0.590166506527209,
			0.6638253738709,
			1.12389885168139,
			-0.8107451482753,
			-0.36398316391448,
			-0.09618016757373,
			-0.388404759064,
			0.982580693536721,
			-0.93170431484531,
			0.484318273276948,
			0.317328365412642,
			-0.01252569625423,
			-0.42532821990436,
			1.01653789069619,
			0.788902512259729,
			-0.29564414516825,
			0.274591166186735,
			0.683402770585108,
			1.08541602535214,
			-0.16841154904372,
			-0.83074937020486,
			-0.3493507669893,
			-0.66861530033485,
			0.274987009285976,
			-0.22686880020795,
			-0.8398938511654,
			-0.4815340950546,
			0.580959758635781,
			-0.53609198407752,
			-0.40340657963583,
			-0.05687032177674,
			0.0641165220945324,
			0.281757629363542,
			1.33123113302782,
			0.130239607944624,
			-0.48472130834908,
			-1.33306028716828,
			-0.76524290046043,
			0.740129211829855,
			-0.76082546271082,
			-0.40887553572518,
			0.262675338740314,
			0.630742421226166,
			-0.93199046804963,
			-0.27835277600062,
			-0.07990630791335,
			0.507803597070698,
			-0.30282485615677,
			-1.04977207190949,
			-0.54861265655028,
			0.162237713529737,
			0.396257371922996,
			-0.64739902943283,
			-0.67435792384216,
			0.788145133576158,
			0.811414075065384,
			-0.64096578795597,
			-1.37679422691165,
			0.430935856211356,
			-0.92750383087964,
			-1.28849143420717,
			-1.30210660822372,
			-0.87619399162053,
			0.9361634901938,
			0.372615605302828,
			-0.66649412899916,
			0.951966099555291,
			0.538897000290104,
			0.0732729184256935,
			-0.83264285420059,
			0.91984859928913,
			0.877983753766053,
			1.61706241001909,
			-0.07516325398738,
			0.647071407580128,
			1.3046056464892,
			2.05867238037742,
			0.0040962432884176,
			-2.03768665469581,
			1.02853636867796,
			-0.03202007645685,
			-1.4269556651402,
			-1.73725143945487,
			-2.04427457929761,
			-0.66720643853978,
			0.54099805808585,
			-0.11649239637898,
			0.21435527448616,
			-0.36072124498431,
			-1.27249634376581,
			1.13644948444722,
			-0.20193149937825,
			0.975105471479218,
			0.617181095318145,
			0.670840558182384,
			-0.45605684817333,
			-0.06491590620428,
			0.690264450322018,
			0.776881204320088,
			-0.80597633170822,
			0.979821976377337,
			-0.10315098620411,
			-0.12719962521698,
			0.765572857260524,
			-0.51649775195798,
			-0.49467301012447,
			-0.71868120142383,
			0.77084050647433,
			-0.47381059728333,
			0.782385278664624,
			0.348471406363779,
			-0.87943656803491,
			-0.08106434704138,
			-0.70698344944893,
			-0.83296059054005,
			-0.77926291490317,
			-0.35837370499457,
			-0.90649761033234,
			-1.54811614043692,
			-0.06279339008629,
			-0.08552069925657,
			1.99628333213384,
			-1.77494395042055,
			-0.09381696177868,
			1.90241731317767,
			-0.3646936879007,
			-0.04146183965538,
			-1.11738624698519,
			-1.14794191769961,
			-0.20702691370128,
			0.117777401142085,
			-1.05077019459223,
			-0.13557923275674,
			0.125075019188493,
			0.0882075682078664,
			0.699932051134334,
			-1.23573587591371,
			-0.05950808490056,
			0.710781198725413,
			0.0755763462703055,
			-1.07803396891115,
			-0.70905242396127,
			0.707143352813239,
			1.02054020361844,
			-1.10164195910688,
			0.0751420050306695,
			0.647874177242174,
			1.17270574218439,
			-0.94412786265958,
			0.188021910527931,
			0.608080678770037,
			0.733327740870727,
			-0.19412951611321,
			-0.35019413474492,
			-0.61681351605252,
			0.347558057899611,
			0.0435972383600295,
			-0.11534510536644,
			-0.64453408547793,
			1.0118737326348,
			-0.68843045471806,
			-0.35861311036845,
			-0.21859071884171,
			-0.86688526366391,
			-0.69131167313465,
			-1.22672517098222,
			0.0286301477582859,
			-0.01265175856331,
			-0.1257073556506,
			0.618388029671233,
			0.404034489779139,
			0.16663811648654,
			0.316785503433034,
			-0.06918312716942,
			-0.17905197561433,
			-0.50080592482677,
			-0.60672944946311,
			-0.68540521999723,
			-0.90925210250703,
			-0.97760951048402,
			-0.89398750927543,
			-0.35388519853099,
			0.526143896377163,
			-0.6827097004398,
			0.467955265695149,
			0.620252041191495,
			1.74175072679333,
			-0.94823711251847,
			1.92452323624986,
			2.24130674620785,
			1.3734088323854,
			-0.08416489938987,
			-0.18794746024866,
			0.645168805633733,
			-0.7833830950435,
			-0.98145723575274,
			-0.12404353417886,
			-0.74566147025645,
			0.712672757145099,
			0.11869844584902,
			0.393180754209548,
			-1.09626695098469,
			0.48817163866967,
			-2.16356156748392,
			-2.28176090516788,
			0.165079943996957,
			0.256977759270522,
			0.559292242122294,
			-0.92613725113983,
			-0.7814514883122,
			1.23915630063343,
			1.44979535121729,
			1.14941933176174,
			1.20450868373164,
			-0.32569153860436,
			-0.96609784144274,
			0.444112579868381,
			-1.04182646781754,
			0.539622855397201,
			-0.13911463338745,
			-1.00753333696643,
			-0.25140975693692,
			0.00864614072607337,
			0.17093979137273,
			0.286478213398148,
			-1.16414349489131,
			0.168542293723892,
			-0.95022679036224,
			-0.45283648341351,
			-1.02270940831186,
			0.779558762060379,
			-1.2129654265206,
			-0.47043892530188,
			-0.61550787510119,
			-0.29803148505038,
			0.273504762224922,
			-0.21353953306265,
			-0.9683811257811,
			-0.79605311474764,
			-0.68962843584978,
			-0.43908152014891,
			0.503184688587161,
			-0.64369708512915,
			0.68990513017232,
			-0.62461947847233,
			-0.96431791288429,
			-0.19004166713655,
			-0.12390745314984,
			-0.78408508421141,
			-0.33031223011792,
			0.249715794671256,
			-0.06617750119778,
			-1.28730916392159,
			-0.29777532887474,
			1.28667564477588,
			-0.30866820731151,
			0.158721467217812,
			0.532327802156701,
			-0.92521162718563,
			-0.24994757836051,
			-0.18400127443202,
			-0.24318656458404,
			-0.97452421665358,
			-0.46633369038474,
			-0.53137855139772,
			-0.03917188104926,
			1.78935838915475,
			-0.22994175358558,
			0.20843258700751,
			0.0380669049091338,
			0.682085251731673,
			0.833014373553175,
			-0.58997743771423,
			-1.18428104584682,
			1.24005451817036,
			-0.16251397443488,
			0.671526466614663,
			0.670604903339297,
			0.498216490611827,
			-0.67695774286578,
			-0.84928326373845,
			-0.62132727281344,
			0.361642911875464,
			0.340550996599631,
			0.784228528047979,
			0.394744994139553,
			-0.05867124511657,
			-0.89565831000258,
			0.0733614276264699,
			-0.3008047909367,
			-0.90944521084992,
			-0.43808563560376,
			-0.17298341120297,
			-0.98368912174846,
			-0.72179588720186,
			-1.01240287597175,
			2.79276808997141,
			0.520091355475598,
			0.00767940222518635,
			-0.89817275847283,
			-1.06533640479196,
			0.427502160617401,
			-0.27848086007748,
			0.361750087205733,
			0.690545668604376,
			-0.20043056912079,
			-0.80673038071529,
			0.445573989030211,
			-0.39447284937447,
			-0.34849865611732,
			-0.02692748441872,
			-0.37503669220018,
			-0.32785537678172,
			-0.94973958114725,
			-0.19698625515913,
			0.590545792934532,
			-1.167097119434,
			0.66287501537236,
			-0.02978666392609,
			-0.61989752988895,
			-0.92469673845489,
			-0.74602612952175,
			0.628130519669579,
			-0.314134319179,
			0.0288858321506234,
			0.746552581991443,
			-0.91828799081723,
			0.595599843794165,
			-0.82233124484518,
			-0.9914140289777,
			0.212630443478349,
			0.925897128464218,
			-0.45756541227904,
			-0.09430660813174,
			-0.72306480749111,
			0.107561168026259,
			0.900791428415704,
			-0.20897482093949,
			-0.83745152798638,
			-0.62975700855747,
			-0.56074442580696,
			-0.17648617998106,
			0.604507437246117,
			-0.03050395182909,
			-0.63700617052216,
			-0.27319014004181,
			-1.08742321710425,
			0.281304111253321,
			-0.01266564547731,
			0.581562587995788,
			-0.80412438616738,
			-0.93012835252615,
			-1.18834981449593,
			0.770434443323184,
			-0.42722183351429,
			-0.82498772958063,
			-0.26636701591786,
			0.103162561748928,
			-0.25152599318969,
			0.334589646255111,
			-0.86491332087664,
			-0.85961689085888,
			0.0604220479931019,
			0.840122498089558,
			0.690278570393195,
			0.478421970395972,
			-0.43733731993716,
			0.445356869506331,
			0.965406562204161,
			-0.21396843851561,
			0.915937658096687,
			0.0161508972102376,
			0.72979711547313,
			1.21591838444363,
			-0.23648148892679,
			0.139294639662506,
			0.417788957969931,
			1.33623009867025,
			-0.32554644483193,
			0.0549555409046926,
			-0.55383969757954,
			-0.1097324467186,
			-1.12659707259679,
			-0.56101140041644,
			-2.16478064350551,
			-0.41664554488223,
			0.460462898086156,
			0.0759853087596605,
			0.123643733308267,
			-0.61455574942768,
			-1.95654800292407,
			0.876701553290221,
			1.36337650842344,
			1.37075193143059,
			-0.94806457457761,
			-0.11240800624396,
			-0.75661547420927,
			0.620533649138442,
			-0.69524340442048,
			0.668628670181315,
			0.390997900375188,
			0.770135084543817,
			-0.27304374474209,
			0.407614778918932,
			0.728807312936505,
			-0.85070929678636,
			-0.96038136096113,
			0.797100568156335,
			0.198765413706046,
			-0.71977093167498,
			-1.09211870314377,
			-0.77086109825696,
			-0.9594301373968,
			0.773078311929418,
			-0.9747059780517,
			-0.47983129566981,
			0.0986677203120554,
			0.82126389304248,
			0.671953728253002,
			-0.02596076610043,
			0.432962046881045,
			0.670492650241426,
			-0.62620924886435,
			0.0366606503875625,
			0.679938775728217,
			0.109053922059004,
			0.379423371144396,
			-0.77856682582472,
			0.83710126516712,
			-0.34130001257192,
			-0.15888009976227,
			0.650410235188144,
			0.119454648029046,
			-0.34459665922754,
			-0.69685911752318,
			-0.04068982120339,
			-1.18233763928011,
			-1.18256183358131,
			-1.08043867435873,
			0.175048382422656,
			0.521060504002687,
			-0.23994037044575,
			-1.04541075680886,
			-1.12234349829981,
			-0.60830835230597,
			0.129817129286398,
			-0.53304314332632,
			0.242926543516759,
			0.252266249666316,
			0.791245991798738,
			-0.39298715068021,
			0.527263943955541,
			0.0310368609995779,
			-0.11292985912325,
			0.427287763543586,
			-0.4403797251896,
			-1.15532637112691,
			0.727822086043351,
			0.205943257337585,
			0.500874312741022,
			0.000889414855155924,
			0.0544776284012683,
			-0.02280826862138,
			0.647081506675112,
			-0.41556039175664,
			0.649314306653804,
			-0.74606829828588,
			-0.18707633616975,
			0.572551268834659,
			1.22418636694359,
			0.688519964155938,
			-1.32685988975412,
			0.611532665210145,
			0.429110149883766,
			-0.38441979960093,
			-0.60674667725691,
			0.109267558472002,
			-0.03014628099857,
			-0.32276669909845,
			0.76744931284294,
			-0.28600621296033,
			0.516061478789868,
			-0.37823224346973,
			-0.94500776646686,
			-0.66770699106047,
			-0.79896858975825,
			0.262595458752104,
			-1.03515004925502,
			1.15705443587722,
			-0.86426200894937,
			-0.7182505485048,
			-0.68279439916707,
			-0.45812469187075,
			1.08899001092526,
			-0.33658719218415,
			0.308959263109712,
			-0.66932567309763,
			-0.19806843967978,
			0.430204602510686,
			0.79020074572301,
			-0.14246834165155,
			0.489071619857311,
			-0.53067767259058,
			0.0730609408713011,
			1.42648645242765,
			0.461735988381688,
			0.15649052753975,
			-0.7359820030135,
			-0.29055880584052,
			1.7026322076946,
			1.13446269138516,
			-0.30647828119451,
			1.00895744505428,
			-0.79699319278308,
			-0.45942380855475,
			-0.75722622707527,
			-0.06833956091256,
			-0.30941612926897,
			-0.31992955702074,
			-0.48767057783523,
			1.12556649768742,
			0.000835774257530363,
			-0.60435974097721,
			-0.09104995966006,
			-0.15752636235096,
			0.799814602608288,
			0.978263643251488,
			-0.43308072266965,
			0.697294024699815,
			1.02560737567143,
			-0.93693840277841,
			-1.3749901710713,
			0.723150935681849,
			-0.91910072864292,
			-0.5079902121362,
			0.514270009710585,
			0.522690705927077,
			0.0978407715931792,
			-0.56043845982794,
			-1.11447216857939,
			-0.41254442175722,
			-0.91512613095785,
			0.403369283875916,
			0.461769852555076,
			-0.26571077634916,
			0.0649982487022862,
			-0.58014118588241,
			-0.78832928521142,
			0.0499208313837619,
			-0.31366062280444,
			-0.26060779231668,
			0.376530178048483,
			-0.29635610679056,
			-0.69213501607398,
			0.247059254106254,
			-0.61874597828871,
			0.0550544673611986,
			-0.79773954321885,
			0.116112715211251,
			0.547802043796323,
			-1.06138440950377,
			-0.39405594539154,
			0.474718723329413,
			-0.63404642512967,
			-0.26431382709972,
			0.0837208843808081,
			-1.18741365916301,
			0.318793766498011,
			-0.4086883138819,
			-0.38977219740802,
			0.146742169417288,
			-1.16388537834782,
			0.476557543779193,
			-0.1063311006051,
			-0.44159546708644,
			-0.22256744265309,
			-0.93177497148108,
			0.127056815798397,
			0.443041770482774,
			-0.72226595949194,
			0.541832959108649,
			-0.17212754085704,
			0.344951557863116,
			0.951951591939743,
			0.526960953894906,
			0.701106859801906,
			0.416022784989409,
			0.708205142693646,
			-0.48873528775147,
			0.550576397472611,
			-0.09102270161923,
			-0.39355715612133,
			0.406365890688168,
			0.6703366545918,
			0.757406272398135,
			0.943829367674322,
			0.071582007738185,
			1.10863185847817,
			1.04999440267038,
			0.726176198828066,
			-1.6086175081284,
			-1.11637341239911,
			-0.50987936219613,
			0.581175060076909,
			-0.08389097744729,
			-0.32418310302007,
			0.650730486087391,
			0.00734868784129145,
			-0.70771487341446,
			-0.28170619804796,
			-1.14769536460897,
			0.194492068712842,
			-0.67960267016976,
			-0.581836653508,
			0.73888944462592,
			-0.91643913855501,
			0.439621624767629,
			1.12703705718464,
			-0.23102127477042,
			0.366444206702144,
			-0.92725047199514,
			0.570000240096855,
			-0.40947040572104,
			-0.0989114369058,
			-0.13720742892779,
			0.035959613165827,
			0.074956117993362,
			0.609013989776357,
			-0.54510212257381,
			-0.52774833211394,
			0.734343995405769,
			-0.7002723075402,
			1.27958094062849,
			-0.91533100822612,
			-0.61333402918919,
			0.252083595296619,
			-0.4382804612294,
			-0.68007865714425,
			0.083501724526238,
			-1.09713943315813,
			0.693160787359427,
			0.655968814330068,
			-0.46764332307323,
			-1.02569236597213,
			0.420064795874073,
			-1.18012718062749,
			-0.41190102972123,
			-0.12270014314749,
			-0.48141226912171,
			-0.2384763736082,
			0.218188609719378,
			-0.51238865547687,
			-1.33656725903264,
			1.27419255482105,
			0.819444736511928,
			-0.44001507239219,
			-0.58758647597528,
			-0.64088760180651,
			-0.67671321597649,
			1.00821345725977,
			-0.79870801880838,
			1.55222027634331,
			1.50907314200779,
			0.0998567803183747,
			-0.98955878371892,
			-0.83368776490919,
			-0.08386989563554,
			-0.52847147022716,
			0.715149975124948,
			0.380921993942174,
			0.741467346772916,
			-0.39322665849506,
			-0.42696321621508,
			-0.77423138602771,
			0.0691047076833447,
			0.194223985629866,
			-0.67488759350531,
			-0.05446726634229,
			0.847048214493875,
			0.621366923765378,
			-0.38119486248062,
			-0.00478528433214,
			0.981901537692795,
			0.243599672808141,
			-0.97671389271085,
			-0.14214829088898,
			-0.07915445878734,
			-0.34028599802719,
			-0.0293019448796,
			-0.86197112444365,
			0.202769544061555,
			-0.117872729491,
			-1.16621157076768,
			-1.07622827450525,
			0.56307103390513,
			-0.37998226369889,
			-0.1920390573916,
			-0.99251086384888,
			-0.21884824315086,
			0.195821094519042,
			0.292470885405885,
			-0.38351952062482,
			-1.16834009667387,
			1.0282173991249,
			-0.09802544032491,
			-1.03377357808148,
			-0.48507430402802,
			-0.31929279628409,
			0.465147415392223,
			-0.75416527477892,
			-1.05986746267237,
			-0.80629991510412,
			-0.62280474681146,
			-1.00580910671015,
			-0.30272214575275,
			0.710223520129477,
			0.522170711408317,
			1.34460169490491,
			-0.05892746109584,
			0.770651622620724,
			-0.28060714689164,
			-0.52760174291074,
			0.198012792641003,
			1.02231171753623,
			-0.23038299130714,
			0.190323155571407,
			0.595009131273225,
			-1.11296867801401,
			0.0899703369807489,
			0.608958988040393,
			1.20203523192718,
			0.245520754021687,
			-1.01777590427746,
			0.364580990084548,
			1.31016987963379,
			0.608193086313511,
			-0.83343858076341,
			-0.93862025245008,
			-0.58478162178067,
			0.715856721637838,
			-0.34628240502208,
			0.297815654507105,
			0.0220969153774375,
			-0.50123818157361,
			-0.31639900080909,
			0.436432984274893,
			-1.07589957658256,
			0.734683568343118,
			1.30415890434102,
			0.460199908360835,
			0.0357701011115348,
			0.667283964185152,
			-0.72164331676882,
			0.0148908429862841,
			-0.98504122288762,
			-0.67694330063708,
			-0.79418884088247,
			0.187759188294668,
			-0.8630111369425,
			0.185056871247518,
			0.604891699116328,
			1.12627588467383,
			0.20831787564906,
			1.17987279783038,
			-1.64521539256989,
			0.502816410534857,
			1.10751817018951,
			-1.3931793697143,
			0.0528964522527451,
			0.240244707046129,
			0.399060988877864,
			-0.41363223742969,
			-0.5603928962414,
			0.353033851720678,
			-1.01982266308665,
			0.735211598823609,
			0.546602013951593,
			0.312152953470826,
			-0.53671296199728,
			-1.1015614533179,
			-0.93990961601691,
			-0.9144684539654,
			0.0896129288980024,
			-0.87350977040203,
			-0.51386357794359,
			-0.17233435864515,
			0.882208356275404,
			0.762654875268119,
			0.77755649693437,
			1.04334536069189,
			-0.49256978307395,
			0.0535689090684268,
			-0.25587307977434,
			0.674114350793251,
			1.11979268186435,
			0.824873058655902,
			1.03919943934506,
			-0.53593951277501,
			-0.33320308824565,
			1.06499850546842,
			0.28302349041784,
			-0.23380714063665,
			0.867704336907955,
			-0.45068010914422,
			0.0548679163585542,
			0.62968275928011,
			-0.02203579386227,
			0.759845086254371,
			0.0654447245195677,
			0.177532863237521,
			0.736995388142403,
			0.92751564199416,
			0.14058486495422,
			-0.74884343681985,
			0.72473665162138,
			0.764108189855886,
			-0.52046521965955,
			0.182971495288545,
			1.08812077059176,
			-0.62697316550742,
			0.0213819928256379,
			-0.78514578378637,
			0.0293355754999346,
			0.592651258311651,
			0.710252486250739,
			0.786271912894844,
			0.0976165121667551,
			-0.73894265131131,
			0.505128448283919,
			-0.6290944199599,
			0.825095698734781,
			0.607517070987413,
			0.576577499178048,
			-0.67603850077803,
			-0.6967440252998,
			0.785579948423043,
			0.658388621903112,
			0.0530462059180765,
			0.170251270853216,
			-0.31600999212146,
			-0.0732311777898,
			-0.60776748379047,
			-0.14889069513724,
			1.05418082213159,
			1.03155153318938,
			-0.29442029202593,
			0.41658245576903,
			0.428230907838472,
			1.038719038936,
			-0.3820794257885,
			0.346842782217828,
			-0.68784304160866,
			0.75680780272915,
			0.368407870837673,
			0.794108609357669,
			-0.32893055365741,
			0.163637890697085,
			0.486284788220506,
			-0.49328633221526,
			-0.33851169984032,
			-0.40161170905264,
			0.154816072631008,
			0.874127315425788,
			0.310830373552832,
			1.14079422628567,
			0.847510718220089,
			0.895383945851308,
			0.586308603595221,
			0.479080538962507,
			0.524738379167025,
			1.12001135977018,
			0.5256188633743,
			-0.32359676937013,
			0.155878625229362,
			0.888066184692363,
			0.0728087594286203,
			0.980215894252179,
			-0.26760273114752,
			-1.02158004243792,
			-1.05385177697913,
			-0.04521016382563,
			0.254161608181109,
			0.680438446127065,
			0.512974236980137,
			0.513989335693762,
			0.582553117080493,
			-1.01565698047944,
			-0.68102262207101,
			-0.35787220269579,
			-0.21448048395914,
			0.279017454773303,
			0.543482332043484,
			0.112953012642145,
			0.344533743821782,
			1.18492773575723,
			0.7807988432921,
			0.0130610850596885,
			0.158591315232804,
			0.500964776568199,
			-0.89395088329197,
			0.293861737423769,
			-0.90273772313271,
			0.651219111407399,
			-0.31450222140972,
			-1.04114385445836,
			-1.01673164478958,
			-0.43250921257727,
			-0.8171644031382,
			-0.39091066345295,
			-0.59980082995814,
			-0.16430292150564,
			-0.15282665812696,
			-0.91513685334435,
			-1.12865817356331,
			0.302903390365216,
			-0.47394022831466,
			-0.53621862350637,
			-0.0430938474401,
			0.150173707335393,
			-0.46825026785087,
			-0.14946808014636,
			-0.81778397789535,
			0.471032135617202,
			-0.24228357403031,
			0.214607269564742,
			0.200735926461871,
			-0.2666889514007,
			0.844351448317165,
			-0.06688797674283,
			0.690579206749132,
			-0.53743418752488,
			-0.00504837807596,
			1.09893176005492,
			-0.30342212421064,
			1.07136908094932,
			0.41388163228701,
			0.74556738481603,
			-0.41747684481405,
			0.939175724740856,
			0.908495940303631,
			0.835930568457619,
			-0.35935407982159,
			-0.0200954457862,
			-1.47096336535735,
			-1.89012303084066,
			-0.80561657693847,
			0.0661626816004487,
			-1.0266161726932,
			0.978008527190222,
			-1.26183851410314,
			-0.4380667214982,
			0.383819411513214,
			0.0980532778856335,
			0.444737316112184,
			0.517514999250806,
			0.155360072448965,
			0.344108235189427,
			1.03113908141107,
			0.547475705019969,
			-0.0967192088402,
			-0.3570477620412,
			-0.37704931499841,
			0.33012587292879,
			0.530836844103824,
			0.453601929277283,
			0.655618466264592,
			0.298841875145507,
			0.876351193410162,
			0.856541802474388,
			-0.8312265412008,
			-0.27163613393142,
			-0.99258345408455,
			0.70844577204768,
			0.122642394672221,
			0.0704829171492672,
			-1.63819889077485,
			0.444620283008091,
			-0.47578698354621,
			-0.8519425726089,
			-1.38234714072465,
			0.652473799278858,
			0.0125334118274734,
			-0.3383136039135,
			0.200969144031947,
			0.184663411291558,
			-0.68432543581512,
			0.512218775271738,
			1.09156239771016,
			0.571720626322062,
			-0.9859895373445,
			-0.20774329475281,
			-0.70892747417012,
			0.720915761166421,
			-1.18711909765124,
			0.182633298932991,
			-0.30101378071149,
			-1.33613294869661,
			1.13422911012859,
			-1.05810534050911,
			-0.67610104085661,
			-0.25821704756383,
			-0.75239452552455,
			0.409375321404071,
			0.489760658683217,
			0.0724062124625979,
			0.428977059862136,
			0.329974904337127,
			0.712670902174034,
			-1.22804140036808,
			0.719187199180831,
			-1.00993615195361,
			0.303455206386572,
			0.601803693329935,
			0.752371342551633,
			-0.29020405691568,
			-0.3296198319857,
			-0.43720435661992,
			-1.13124807648148,
			-0.05732305936264,
			0.322850518410532,
			-0.04630232888229,
			-0.96857592607159,
			-1.28622579247877,
			0.935896841192917,
			-0.10767357988313,
			-0.78651188066429,
			-0.50775812931001,
			0.528056206249377,
			0.223219863047525,
			-0.00080790505953,
			0.118553818054435,
			1.16510213446498,
			0.0553008719354414,
			0.154944425325566,
			-0.59778916459128,
			-0.89320118575016,
			-0.97864233531859,
			0.654563980448449,
			-1.1371041481062,
			0.555510982382436,
			-0.51439915866842,
			0.680224935856736,
			-0.40635535094428,
			-0.83827307950893,
			-0.4247806062653,
			0.10700595736986,
			-0.47224602198722,
			0.557014529078599,
			0.216151200956152,
			-0.20252279964979,
			-0.68230920803321,
			0.351285914841995,
			-0.73337296130496,
			-0.28356066378506,
			0.281442068586704,
			0.958240071714126,
			-0.1586152580842,
			0.43291302608611,
			-0.05830182699709,
			0.61717348719767,
			0.190982605017887,
			-0.72056379565682,
			-0.37297824488273,
			-0.52391232816452,
			0.446257978640165,
			-0.16473700987021,
			-0.5901397217129,
			-0.51492730271362,
			0.531587893852199,
			-0.03635461133058,
			-1.02600859625557,
			-0.87379876404789,
			0.636179322673266,
			-0.41313674086203,
			-0.71419336217988,
			-0.88350429081957,
			0.542039360235251,
			-0.47187689682373,
			0.563525161244027,
			0.156838011927322,
			0.902811195140257,
			0.605503953905572,
			0.285954125061198,
			0.564384014300759,
			-0.47017039211275,
			0.229783986750357,
			0.720097353670243,
			-0.65260457371744,
			0.569441254588905,
			0.496439709822196,
			-0.57461238375515,
			-0.65635390024994,
			-0.45484311213989,
			0.477493484414286,
			0.0550427479364868,
			0.535332524754902,
			-0.32578871646588,
			-0.29273567498813,
			0.439271972118849,
			-0.8171629499082,
			-0.80009459120246,
			0.0700898140732412,
			-0.23736878694298,
			-0.26309888481302,
			0.978747606230761,
			-0.98287349258751,
			0.0215690478481484,
			0.643829182227185,
			-0.30756028050158,
			-1.29784957647068,
			-1.08853247858591,
			0.399583677130094,
			0.561399835317404,
			-1.15757999594003,
			-0.25079035335766,
			0.450129431226206,
			2.03661696286881,
			-0.27846664895122,
			-0.80227552902059,
			-0.46861501314312,
			-0.32064207876619,
			1.84637008600602,
			-0.42690913440145,
			0.698706098874362,
			0.724749344404813,
			-0.37060344245033,
			0.858431140252709,
			0.0730533096169882,
			0.382773508810507,
			0.56085703001605,
			-0.24343682607646,
			-0.48459115351374,
			-0.40984787123746,
			0.644987449641429,
			-1.97468600299772,
			-0.49649622894522,
			-1.10626851492828,
			0.0230472477253847,
			0.392187037905703,
			-0.28070495451501,
			0.816685149358362,
			0.516242162990524,
			0.0368396773439353,
			-0.04802032249053,
			0.510579795189266,
			-0.74217887410365,
			-0.76138835648146,
			0.241867617167266,
			-1.01579736234717,
			0.354823448680029,
			0.349441889866615,
			2.11945096092508,
			-1.36029420736792,
			-1.51558386399611,
			0.567617113405987,
			-0.29088739055088,
			-0.83047874847569,
			-1.53391598275426,
			-0.62111395181482,
			-0.6965359547109,
			0.806935915995106,
			0.95256031577512,
			-0.26600775934109,
			0.916956835450672,
			-1.04800636578941,
			0.186137145029873,
			0.590744034475527,
			0.664120496550838,
			0.124651672440304,
			0.0234934383179583,
			-0.77703490690909,
			1.19799219598672,
			0.559789899697935,
			0.468475556916821,
			0.33099532549582,
			0.357427184414136,
			-0.82895912633618,
			0.276047984912208,
			0.144229298586131,
			-0.06032831055881,
			0.451765379151069,
			-1.02117367893115,
			0.934915395691572,
			-0.11050200558129,
			-0.33631652266554,
			-0.33400883384267,
			-0.4158664379203,
			0.964686415662328,
			-0.78379656841756,
			0.969870239875563,
			0.24788104951365,
			0.204226618238534,
			0.722623621563436,
			-0.17445916621439,
			1.60180578607286,
			0.42877991893285,
			0.482410789466215,
			-0.78313514642178,
			0.205479413857628,
			0.762533017692614,
			-1.03494387679837,
			0.276439038172265,
			0.152834170896848,
			0.221007670169781,
			0.333405650649348,
			0.630212017335725,
			0.143198171957271,
			1.30134934198672,
			-0.33790120288244,
			-0.38059965387276,
			-0.03697010287164,
			-0.10923834991341,
			-0.140448528312,
			-0.08789481548785,
			-0.01797126285641,
			-0.56488995689217,
			-0.40030675238994,
			-0.11527228584699,
			1.71522907535467,
			-0.94759437354443,
			1.21588699923546,
			1.6028834568178,
			1.02553484326109,
			-0.01442794176981,
			-0.36172144426196,
			0.248102061246824,
			-0.76261224196704,
			0.03542582208199,
			0.192277936938148,
			-0.52686669539907,
			-0.32368274765157,
			-0.83298316518881,
			-1.12012735457703,
			-0.94989561494036,
			1.25532678382456,
			-1.12164237204839,
			-1.18158901831929,
			-2.31850280538996,
			0.698323003488319,
			1.76948807033455,
			-1.36012667325489,
			0.183819979993962,
			0.705196198126345,
			0.55925555779962,
			1.01472515741197,
			1.17057341290372,
			-0.20969006318799,
			-0.3523080393935,
			-0.0240618762133,
			0.427708867489945,
			0.220103110484631,
			-0.39845352852779,
			-1.05135892211412,
			-0.83330028956023,
			-0.87788995274348,
			-0.76479413552401,
			0.771679577658455,
			0.316220529364183,
			0.25273496561166,
			0.254790174289907,
			0.678275646111457,
			-0.31710898756805,
			0.44841718777484,
			0.00764444982543273,
			-0.45748367481711,
			-0.92983421186718,
			0.800083037484995,
			0.498406746003982,
			-0.0647165613875,
			-0.19404301362395,
			0.0412813872012415,
			-0.91960661775176,
			-0.53823408940324,
			-0.38059285481465,
			0.749431363751506,
			-0.68626262113019,
			-0.82786528879617,
			1.03217996213886,
			-0.36698586381702,
			1.2556734646217,
			-0.15172715278691,
			0.320976812418318,
			-0.07113216302301,
			-0.24089343754383,
			0.187004731118061,
			-0.51075696266859,
			-1.10112469835029,
			-0.13045617651546,
			0.929589916932573,
			-0.32069101576072,
			0.315002663260374,
			0.308317944211897,
			-0.42641926619991,
			-1.7300235500298,
			-0.33902209083067,
			0.0363724126833697,
			0.189333876118494,
			-0.30547614403521,
			-0.17729574933603,
			0.37735254580944,
			-0.15997396290591,
			-0.25329030124562,
			-0.12351436368287,
			-0.17734479745253,
			0.385533558195426,
			-0.81282422998041,
			-0.72873367814354,
			-0.23458063955839,
			-0.79172442120119,
			-0.05986581924248,
			-0.70029240722846,
			0.43123295446972,
			0.409618105227992,
			0.0766625592744698,
			0.20063159180904,
			-0.5737109295884,
			-0.8209304488635,
			-0.64061682484866,
			-0.89973682920371,
			-1.0198053227159,
			0.0413382814705715,
			-0.83507558837249,
			-0.73672343025988,
			-1.1078151191725,
			0.475881558226176,
			-0.72050091661663,
			0.631941774420112,
			0.102743088191929,
			-0.54206663746219,
			-0.02223071877973,
			0.241610180778024,
			-0.47832664000639,
			-0.05544537046695,
			0.227264452877509,
			0.00705201537558561,
			0.284859915790281,
			-0.8710018544272,
			-0.96722352066584,
			0.130424653996847,
			-0.40056705460064,
			-0.06047702549523,
			-0.77861286468338,
			-0.09824036176187,
			0.0802135259968984,
			-1.21413480568686,
			0.189772740406896,
			-0.83754176500094,
			0.73644906868622,
			-1.05573038530395,
			-0.01487640809549,
			-1.03751948167279,
			-0.13828503438346,
			-1.11457110145778,
			0.163739949002454,
			-0.77218599944691,
			0.186554037579625,
			0.601059074508228,
			0.268514438887226,
			0.104733850579826,
			-0.50340945419896,
			0.500667998383423,
			-1.19311344814526,
			-0.18328548172362,
			0.308627738769591,
			-1.01268137982034,
			-0.05449973275383,
			0.170872246199706,
			0.0930709552108941,
			-0.89506071793713,
			0.663460191826087,
			-0.99499963373343,
			0.481210129673535,
			-0.35426429389583,
			-0.7967038882563,
			0.424799821566132,
			-0.98888817846759,
			-0.85627428233152,
			-1.11781594650717,
			0.382299493807473,
			-0.85618184672709,
			-0.19171082823996,
			-0.99282899331671,
			0.490108420390692,
			-0.85834908807399,
			-0.72930981521678,
			-0.58678855064886,
			0.639860743894755,
			-0.52688075109431,
			-0.80221584719273,
			0.585646709100745,
			-0.18681444654745,
			-0.01038838894512,
			0.566954977770278,
			0.466335928425027,
			-0.28583533059496,
			-0.8218556473888,
			0.464809824617635,
			-0.60169547124893,
			-0.64152391582839,
			0.293008794129915,
			0.450693589014443,
			-0.56813351912533,
			0.412824779712947,
			-0.0734950423613,
			-0.41013554754125,
			0.016092275097786,
			-0.22987420578305,
			0.729683473410317,
			0.900925899759956,
			-0.48928775406286,
			0.00260261487767472,
			0.235871447472524,
			-0.45185269576229,
			1.02124122217591,
			-0.95497986688348,
			-0.69653348097552,
			1.18639303287464,
			-0.31818507316962,
			1.89176079942766,
			0.723616565209389,
			0.149654875051793,
			0.843453738154662,
			-0.3855407941881,
			0.557793850062329,
			-0.75702855714784,
			-0.81513653698566,
			-0.53421310846148,
			-0.92102249952718,
			0.269536890946615,
			-0.45356368007781,
			0.809371193143763,
			-0.26700910680665,
			0.258468863965509,
			0.933025502391625,
			-0.36097819217247,
			1.03200986624613,
			0.383712007347866,
			0.740454454152288,
			0.00984707769900481,
			-1.15487417834672,
			-1.27349761468975,
			-0.32992703169648,
			0.700708664827155,
			0.600292356989402,
			-0.69210141389324,
			0.034194706149983,
			-0.30679803612637,
			-0.70260517902051,
			-1.08073573948663,
			0.988204009518908,
			0.100303114411231,
			0.341349295208204,
			-0.0545803439158,
			0.0672156276670355,
			0.86059261797825,
			0.437478655980808,
			-0.35844378335775,
			-0.44651399684095,
			0.45785958151636,
			0.211338708710485,
			1.08339962940526,
			0.508545216201614,
			0.303766900633374,
			-0.97246060667915,
			-0.70117608764109,
			0.853104009150649,
			-1.11013714755036,
			0.155635807283655,
			-0.23319291327539,
			0.383596193452542,
			0.600202069427775,
			0.412644122900368,
			-0.72996275440439,
			-0.78145350935599,
			-0.68046365598659,
			-1.02602109505244,
			-0.20171854853279,
			-0.2788747160957,
			-0.17796792955669,
			0.682426031829135,
			-0.36821232901186,
			0.469630241259552,
			0.797131277723318,
			0.135800734533559,
			0.824485392470909,
			0.729932170927079,
			0.0379736432813125,
			-0.26528769394651,
			-0.97846767598635,
			-0.75703187051985,
			-1.01612580434057,
			-0.24569037506258,
			-0.6496660412773,
			0.909352614283601,
			0.214570564829395,
			-0.98514226563146,
			-0.73459379699405,
			-0.95814698986497,
			0.964717983724017,
			-0.11493347862872,
			0.45976994854656,
			0.594187510024379,
			1.04903548346073,
			0.748664977715721,
			-0.34592409623807,
			-0.51966743049587,
			-0.86165500267713,
			-0.46172318739531,
			0.102303616126175,
			0.628844998852226,
			-0.34386509868711,
			-1.05655038401383,
			0.0134889519043902,
			0.280783696062221,
			0.252951562265523,
			0.586228104113622,
			-0.13114450243274,
			-0.04655037417304,
			0.409499912774096,
			0.268950818332997,
			0.307893786118758,
			-0.88074857727508,
			0.116964426012936,
			0.883637336733466,
			-0.41020714885322,
			0.960398638886142,
			1.09066486036667,
			0.0526235836080269,
			0.136150679193923,
			0.699014896846293,
			0.643321252318194,
			0.79978479502287,
			-0.56716701915927,
			0.684525036267055,
			0.555440681404525,
			-0.18757183151729,
			0.450269279741903,
			0.307572017485224,
			0.331719648544639,
			-0.34370594511394,
			-0.15708795278759,
			-0.50158009835817,
			-0.73430627460003,
			-1.44001621048159,
			-1.46428794297406,
			-0.89000685053367,
			1.79918157388245,
			-0.54063050225856,
			0.0183155308652164,
			0.884663745775065,
			-0.72258664485636,
			-0.35973909152142,
			0.262631830954052,
			-0.52995803490697,
			-0.45445403524639,
			-0.94364806469654,
			0.86903360208438,
			-0.15187470108334,
			0.624321238101884,
			-0.29656658593987,
			-0.14459359813044,
			0.839992597826882,
			2.02790232885178,
			-0.83094174593213,
			1.2416035091367,
			1.93761824307439,
			0.61931983837316,
			-0.27501572636762,
			0.556022975709917,
			0.0816252011582098,
			0.759854253828321,
			0.702539623980196,
			-0.41862147489247,
			0.0594436666565355,
			-0.90600714746588,
			0.167391780400873,
			-0.46829025999543,
			-1.26969323164002,
			0.446913348233177,
			-1.26872858770132,
			-1.24207493661742,
			-1.52850572261674,
			1.51759678514025,
			1.17692926881413,
			-1.60464329469249,
			0.466096744148402,
			1.66589977868421,
			0.974909586753738,
			1.8998224331396,
			1.13611850688782,
			-0.26009353250327,
			-0.81515051331195,
			-0.4346590032917,
			-1.07523285740255,
			1.66203023392342,
			0.0196999087166991,
			-1.01832383623158,
			-1.33391676919804,
			-1.38839798967062,
			0.535977183476184,
			-0.92039633170199,
			0.191156535382399,
			-0.03396227784242,
			-0.75302841502469,
			-0.29167719248982,
			0.2908797978618,
			-0.06440172524754,
			-0.33881267413286,
			-0.72465069679674,
			0.0269942415542967,
			0.0474102632285711,
			-0.69339423347207,
			-0.62492799315215,
			-0.14020671875931,
			0.139441861303692,
			-0.35058751039305,
			-1.0253036350335,
			-1.04476116427204,
			-0.47204679731063,
			-0.56943662315242,
			-0.67614297074365,
			0.235695162271373,
			0.695565514453271,
			0.0389969949180371,
			0.277854926786244,
			0.7356305541743,
			-0.68882264591612,
			-0.75723129818872,
			0.557911069384731,
			-0.79352911476141,
			0.58293191526799,
			-0.57197933563427,
			-0.30258241646318,
			-0.07932171076307,
			-0.48804853205062,
			-0.73073451422499,
			-1.2980247742616,
			-0.75508380238554,
			-1.29335607076897,
			-0.84979163206373,
			-1.12657305108957,
			0.180070673682452,
			0.551263100573688,
			0.613832391121545,
			-0.5455921052477,
			-0.3236698438943,
			0.317322715776406,
			0.236322604587311,
			-0.9840041486546,
			0.0135385965097225,
			-0.31925582403434,
			0.554751389469866,
			1.25440601244393,
			0.466947227106563,
			-0.03311944915259,
			-0.46262772081945,
			1.02144393507458,
			0.0146706249223233,
			-0.35957306893177,
			1.14848056880358,
			0.734088086722773,
			0.500234292791873,
			-0.54648067640043,
			-0.03125530158125,
			-1.89793689553268,
			-0.14937495969486,
			0.875120774515328,
			-0.12375536529977,
			0.0863791016305909,
			-0.50121826445151,
			0.413482160489331,
			-0.7218316450989,
			0.30522419917626,
			-0.05592944131943,
			-0.76826275778657,
			-0.08859687860398,
			-0.0347080694611,
			1.1092808296389,
			0.390611919346607,
			0.417604868619725,
			0.655464530929791,
			0.155388022344299,
			-0.70147783845301,
			-0.77132991547804,
			0.485804183102373,
			-0.25280916787509,
			-0.04810990039824,
			0.798395168393592,
			-0.26135178689464,
			0.279649995542428,
			-0.28854658018806,
			0.70038364708507,
			-1.04722061704102,
			0.4751951125462,
			0.689121350897149,
			0.713250530398418,
			-0.68863308356383,
			-0.11736553908674,
			0.103329215265209,
			-0.48153091551765,
			-0.54851719448579,
			0.0726856849522375,
			-0.51057371597221,
			-0.32643169405229,
			-0.70455582403378,
			0.134730324475086,
			-0.17122505617769,
			-0.948814476078,
			-0.1588896854077,
			0.942254830616106,
			-2.52958230429436,
			0.80932115428941,
			-0.18428639923759,
			-0.25874421989352,
			0.418561831920216,
			-0.07709698333395,
			0.247714439686586,
			-0.10152351563105,
			0.285693249041036,
			-0.59062093272694,
			0.55229700841254,
			0.488677122761329,
			-0.08440579245209,
			-0.27179243584418,
			0.827325353701167,
			0.404502551410152,
			-0.92166021108626,
			-0.09842276359581,
			-1.19622612379477,
			0.493050537171919,
			0.915008174654823,
			0.596433879189752,
			0.206346151178681,
			-0.03174150093288,
			-0.60960484517052,
			-0.34592796352923,
			0.527767731382497,
			-1.02224646601556,
			-0.27214723843598,
			-0.15708952593405,
			1.24293172483126,
			0.111485829581097,
			0.181131677690462,
			-0.06468805695697,
			1.02866563831281,
			0.823231021843643,
			0.544694477273236,
			-0.38835839940275,
			-0.640493813137,
			-0.03803874253257,
			0.913421606055376,
			-0.2680210084313,
			0.211244773817585,
			0.606589152442711,
			0.953953291706337,
			-1.17197604811394,
			1.10356744969248,
			0.0616042046927328,
			-0.98642575829809,
			-1.10454297424764,
			0.711477317404814,
			-0.76871549696084,
			-0.43828998634801,
			-0.38094117076784,
			0.220187426723316,
			-0.04404374983265,
			-0.23463171185823,
			0.0122693924810677,
			1.10604433119098,
			-0.35765452115149,
			-0.59573736148728,
			-0.38686824089199,
			0.49223980553742,
			0.929710430108758,
			-0.06351170381612,
			-0.03863154382629,
			0.153291589439494,
			-0.56107542317486,
			-0.1967934098172,
			-0.48744191858884,
			-1.20505875254269,
			-1.10552543003567,
			-0.48457976382994,
			0.202426958204897,
			-0.29811524822541,
			-0.99309540196941,
			-0.80399359897227,
			-0.78353328750446,
			-0.0478893053382,
			-0.31861659359929,
			0.309268834100716,
			0.465786552828386,
			0.870101856255487,
			-1.70866792702095,
			0.327135555325496,
			-0.19594882295132,
			-0.475466668168,
			0.0967427936186237,
			0.165677228406386,
			0.1951152969306,
			0.0015978342363814,
			0.323743879808643,
			-0.01220007694291,
			0.216627865161663,
			1.0563421023448,
			0.671981864455609,
			-0.22249901127818,
			-0.21777641692654,
			-0.31411342201369,
			0.619456216906128,
			-0.05938155914879,
			0.117090277304144,
			0.667948154480284,
			0.151436344517746,
			2.35434446280503,
			0.32213213325873,
			-0.95465146648063,
			-0.31603818300594,
			0.36654048241441,
			-0.15430464748267,
			-0.27347937371418,
			0.282170131138073,
			-0.27171664600191,
			-0.5353518640989,
			0.71213596820132,
			-0.40828186978842,
			-0.39773940746779,
			-0.45224725923438,
			0.545666342174547,
			0.667018035416213,
			-0.4692912248678,
			-0.00097355135248,
			-0.32161278810256,
			0.434818350206617,
			0.843467107104509,
			0.898277524205358,
			-1.07356500118375,
			-0.21714517517059,
			-0.34078377325234,
			0.434780419927633,
			0.461545311023488,
			-0.47110098346499,
			0.701022952141918,
			-0.95994165340574,
			0.80304901697709,
			-0.7042089916069,
			0.43691750943816,
			0.481862150553977,
			-0.84058591663469,
			0.559770526210208,
			0.354146926063925,
			-0.44104701933341,
			-0.3245225522401,
			0.161981610509571,
			-0.32925298143032,
			-0.31252622111353,
			0.46629989936832,
			-0.12429338110361,
			-0.76664964608249,
			-0.68038217455405,
			1.05235978444329,
			1.06167819335643,
			0.113992576166231,
			0.19641922163635,
			-1.16715287451681,
			-0.57818208132659,
			0.0676815451919654,
			0.0150278749841151,
			-0.66846205067804,
			0.448379682726767,
			-0.19725280014097,
			-0.70730493194041,
			-1.00316666947844,
			0.287244624283696,
			0.272725793473822,
			-0.55847935427518,
			-0.70934532117432,
			0.950657977069755,
			-0.14550021682968,
			0.838659146685462,
			0.78499712363302,
			-0.46753551490184,
			-0.30790754494137,
			-0.1311616485135,
			-0.90072292117355,
			-0.80820834157089,
			-0.6702495828357,
			-0.57851857044614,
			0.596528022055617,
			0.530304051379235,
			-0.18461256646463,
			-0.80530616068503,
			0.301034117407069,
			-0.05403332561696,
			-0.05971116392077,
			-0.66809683209434,
			-0.51714506283387,
			0.561683418453375,
			-0.17993209549507,
			-0.64632469253286,
			0.319265155383131,
			0.957475375473641,
			-0.26502472120214,
			-0.79620461909072,
			0.122955367384672,
			-0.08151284973529,
			-0.07328033733952,
			0.477195712539264,
			0.0239036518315108,
			0.167650914338027,
			-0.70107059131449,
			-0.11081892255138,
			0.343444630131474,
			-0.05386844915501,
			0.0498577877929478,
			0.179253447133399,
			0.568725039206197,
			-0.93245091297134,
			-0.53679252463956,
			0.20012171895187,
			-0.01406715869602,
			-0.09614126715508,
			0.72662364925952,
			-0.58716283741192,
			-0.97054756443326,
			0.157973821298853,
			0.319559874195094,
			0.0723966970195569,
			1.31675825802142,
			-0.36075204418333,
			0.832438637272882,
			-0.81593654958506,
			-0.56851985341478,
			0.755600788347179,
			0.868352297865845,
			0.126598966954339,
			-0.56331725931692,
			0.633522627591923,
			-0.61435837105892,
			-0.11625584982034,
			-0.48643202709449,
			0.975753131349898,
			0.34996645705586,
			2.41159321376796,
			-0.94849812875161,
			-0.05929169268297,
			-0.74886896730033,
			-0.65105566255881,
			-0.87210879685118,
			0.514825129629372,
			-0.17388661715012,
			0.336332022513427,
			-0.83241655260596,
			0.482237957289591,
			-1.00130145597396,
			-1.07452842456885,
			0.793501538097445,
			-0.15359672237009,
			0.503809142225676,
			0.156179117251476,
			-0.31055560943646,
			0.639542135361845,
			-0.461876232492,
			0.493987294522297,
			0.237259526851521,
			0.402754688760239,
			-1.25478718387309,
			-1.11664822787536,
			1.12998421775061,
			-1.03002764664298,
			-1.29829218046386,
			0.487113945175725,
			-0.03448000147981,
			1.08054700199519,
			0.326905775668174,
			0.307322261853956,
			-0.27337390810779,
			1.05472396380097,
			0.0776012026455283,
			-0.32340766344954,
			-0.84769035810643,
			0.415852110235086,
			0.214255746608291,
			-0.12055334772852,
			-0.7677033908358,
			0.294250259019868,
			0.420659633327765,
			-0.73875576697821,
			0.313468113698305,
			-0.44978112269028,
			0.463968481612571,
			-0.12795260045531,
			0.592094159958983,
			-0.26996811739376,
			-0.22830316821292,
			-1.46563677567444,
			-0.52594030258113,
			0.103504341319241,
			0.180663443072477,
			-0.22228532551615,
			-0.54894992710107,
			-0.76933248488298,
			1.09371718462947,
			0.138651277714501,
			0.651746480276715,
			0.714046971553276,
			0.775438208556092,
			1.13738976667332,
			-0.9122225517691,
			0.359328565745468,
			0.194771592609863,
			1.61852112783229,
			-0.49654216594056,
			0.346701863674611,
			-0.1572873014672,
			-0.05614252726193,
			-0.20063869822516,
			-1.25675359559395,
			-0.17803783936669,
			-0.46025479051919,
			1.77278390952678,
			-0.33315178321727,
			1.21939001343757,
			-0.40896317659574,
			-0.47112237065972,
			-0.29122864053059,
			-0.1878604100645,
			1.20825593494152,
			-0.7213699149442,
			0.56579063913596,
			0.282384925768876,
			-0.18601621168353,
			0.898708474763872,
			0.0552261154615855,
			0.521068164127632,
			-0.09987242240054,
			-0.64160819386173,
			-0.12112332469484,
			-0.76789925310072,
			-1.0258674492711,
			-0.51237355509801,
			-0.29606255038395,
			-0.87592057733972,
			-0.46668374208298,
			-0.51375362308371,
			0.188704789471532,
			-1.06340388735894,
			0.521422997747601,
			-0.53580736789063,
			0.619358660509087,
			0.948257556569171,
			0.251048558417393,
			0.669886610659445,
			0.292502233580251,
			-0.69818229934348,
			1.12156894431613,
			0.014582886460351,
			-0.0793204801099,
			-0.15289824264969,
			0.39602486366102,
			-0.83939874737315,
			0.327678767024437,
			0.0872972176149707,
			0.933754952627865,
			-0.60944963343586,
			0.638901682444114,
			-0.07376972689587,
			0.695103511005287,
			0.934430474638517,
			0.534208583523139,
			0.5863439748066,
			0.455474466422958,
			0.15494815935566,
			0.691432285408699,
			-1.055515910644,
			-0.79415583681478,
			-1.05905345457257,
			0.271860183530755,
			0.0956843486339222,
			-1.16452997830886,
			1.0303962807631,
			0.624938209798631,
			0.492462185407294,
			0.15499005141197,
			0.202207763097892,
			-0.9416605247984,
			-1.14791903086491,
			-0.16994004832588,
			0.476431523671085,
			-0.78166537836764,
			-0.91760420006073,
			0.563189312787023,
			0.553768845296978,
			0.453213701567883,
			0.38602549852949,
			0.149738530802078,
			0.389032935158875,
			-0.10270982918547,
			-0.58153385845078,
			-0.18565870101907,
			-0.27345016514364,
			0.871867065174913,
			0.836312443651316,
			-0.31131726186906,
			0.088088557080502,
			-0.31858451550319,
			0.293599174572241,
			0.284805526363085,
			0.435012722144726,
			-1.30135115068193,
			0.545861069838198,
			-1.18947250430845,
			-1.25967595570948,
			0.412067212659136,
			-1.08730894693255,
			-1.3388121553341,
			0.265799947567953,
			-0.97485436813706,
			0.277918848001735,
			0.168305786960982,
			0.0474533855192512,
			1.42943511361636,
			-0.49388967256186,
			0.0423144940517509,
			1.19021181432016,
			1.15828390395101,
			-0.34371490232458,
			-0.85655524810028,
			-0.00107996118025,
			0.222535640155717,
			-1.08745174482569,
			-0.27649206296761,
			0.567621951311598,
			0.16687663674412,
			0.408439215720679,
			-0.38575032894491,
			-0.7597681256163,
			-0.95905749115775,
			-1.22201158171742,
			-1.81355583466085,
			-0.01153316955676,
			-0.64606723379531,
			0.702744780083906,
			-0.92804457972402,
			1.00502281106803,
			0.132902119203976,
			1.18449750993296,
			0.21358877320793,
			0.75245127682541,
			-0.54555874241633,
			-0.30097997116201,
			0.423660860088469,
			-0.23307903617688,
			1.22605201040738,
			-1.06456197958664,
			-0.35534005491778,
			-1.28778964528437,
			-1.19574830669211,
			0.215419648065437,
			-1.17248052765926,
			0.375148118351593,
			-0.29664908585109,
			0.67898130708252,
			-1.06858864570037,
			0.193765851798023,
			0.766832574418865,
			0.347653891906674,
			-0.919090617087,
			-0.85458694174383,
			0.571410789740463,
			-0.345625425532,
			-0.26021232828291,
			-0.95136027441826,
			0.0536906064543555,
			0.568137984837543,
			-1.01898975639743,
			0.386383118663596,
			-0.53545396948742,
			0.084375807869148,
			-1.12537959771413,
			0.64704303823061,
			0.527537541137969,
			-1.02055961067118,
			0.695932744743479,
			0.577725636073246,
			0.617584229144188,
			-0.19352382268061,
			0.547627769218657,
			-0.33244408017315,
			-0.48701765625099,
			-0.51466609547897,
			0.0253569215839336,
			0.980543135337609,
			-0.37457566227033,
			-0.74128457315975,
			-0.68839230715971,
			0.95045237405535,
			-0.87564820119949,
			0.590560115059731,
			-0.45022927813634,
			-0.03782648880986,
			-0.77367783633533,
			-0.02372850751142,
			0.407170823908006,
			-0.14619974723775,
			0.446116478679939,
			-0.88051495501801,
			-0.68050276827228,
			-1.49415284612181,
			0.536458528855187,
			-0.65201153668685,
			-0.53616619599436,
			0.237661302829356,
			-1.31007660853979,
			-0.50375356656344,
			-0.86942990751903,
			0.524879947799999,
			-0.88482016384868,
			0.302923903549064,
			0.210210197077757,
			-0.42267222991171,
			-0.06148676120801,
			-0.32302252094555,
			-0.41165465956435,
			-0.07546843211224,
			0.12055250308886,
			-0.40276601554948,
			-0.89375072977746,
			-0.27233767564577,
			-0.11723470470358,
			-1.00877686147154,
			-0.18472005859963,
			0.538014729236885,
			-0.82346029460081,
			0.200981851717249,
			-0.3898478155643,
			0.224745864675974,
			0.359758694843841,
			0.45441978438623,
			-1.00646720586308,
			-1.04291257351821,
			-0.82587202763887,
			-0.85016790035466,
			-0.87234740819433,
			-0.66634896617567,
			0.355114949153567,
			0.338732085059963,
			0.187844329697249,
			-0.32059080057436,
			-1.17033665686701,
			0.179551873444828,
			-0.93092181391399,
			0.225659697406244,
			0.0438554877073364,
			0.0700454018512539,
			-0.88832462301881,
			-0.73965720652487,
			-0.85064375562063,
			-1.00529650852699,
			-0.47359328702402,
			-0.8842542556326,
			0.588503452901043,
			-0.68124682059535,
			-0.38585274516889,
			0.498680610688855,
			-0.5217239032783,
			0.0703681846676787,
			-0.97221659654674,
			0.127510029492492,
			-0.92281491048447,
			-0.05456168825968,
			-0.30350860957233,
			1.12362032343504,
			0.147149249737705,
			-0.95160615189189,
			-0.59809287777868,
			0.923284726438468,
			0.73741016382747,
			-0.30915668008022,
			-0.38495150772352,
			-0.64790483612061,
			-0.06365871666986,
			0.814805159883948,
			0.256234320088926,
			-0.59194121688469,
			0.670315111809878,
			-1.05340108805742,
			-0.50452611820926,
			0.181202419587411,
			0.840024220276969,
			-0.87183332439496,
			-0.90767057316511,
			-0.66769235778319,
			-1.4743953412625,
			-0.26803767497056,
			-0.56276506930423,
			-0.50391028937666,
			-0.4533937465412,
			0.68291940446405,
			-0.40180690000891,
			0.324479181390943,
			0.131586985716728,
			0.935721971869602,
			0.526363966012638,
			0.3447952611917,
			0.516417427408553,
			-0.31246788555836,
			1.06244773785463,
			0.870019082245498,
			-0.71870115524114,
			0.0241101242443522,
			0.845684929587337,
			-0.59569026589279,
			0.442302408542933,
			-0.85666283088114,
			0.762673677661755,
			0.63005708735524,
			0.335269354632038,
			0.0697121488531629,
			0.705531122037205,
			0.0316250857397434,
			1.41361588036122,
			1.48155920133705,
			1.09242065650284,
			0.592686976786853,
			-0.34180493417845,
			-0.48027854945153,
			-0.670635096843,
			-0.56212500757016,
			-0.1416096886932,
			0.921938232424678,
			1.12211867656706,
			0.242490334640504,
			-0.0958935779431,
			-0.68980733962502,
			-0.51898576543951,
			0.119405534532384,
			-0.20443662001732,
			0.56267226752417,
			-0.09430117229057,
			-0.48954351866845,
			-0.1858374093488,
			-0.28027284118272,
			-0.39340655379524,
			0.788377906530011,
			0.683909449161665,
			-0.9341199971299,
			-0.78701539799796,
			0.639989041976892,
			0.669146563141018,
			-0.52977269021418,
			-1.01759680910657,
			0.0802305093926665,
			0.368646319396803,
			-0.63176901323618,
			0.944024916055072,
			0.921085646105452,
			1.10122522971901,
			-1.22070698244923,
			-0.41194260515651,
			0.964223983305311,
			0.059010679834083,
			-0.47578347977909,
			-0.05591113269712,
			0.186384073063024,
			-0.82746058378309,
			-0.09641173813799,
			-0.68880344253215,
			1.47722575818484,
			-0.48604671646351,
			-0.32876456626561,
			0.633712360163647,
			-0.79039832233296,
			-0.98043509789389,
			-0.90250640949595,
			0.116740002203124,
			-0.3850753707325,
			-0.91058268363343,
			0.776941571781841,
			0.0301594152542836,
			0.36666006318002,
			-0.60583348018731,
			0.741978550405234,
			1.0443448518607,
			-0.29360469150237,
			-0.67567492305663,
			0.790470710835974,
			0.511797432303606,
			0.552494295976152,
			1.05324422170214,
			-0.36816703831058,
			0.916362137762974,
			0.58231214208396,
			0.471698842656184,
			0.979979440069505,
			-1.62380549592366,
			1.0561290008818,
			0.880459491393625,
			0.778809531507503,
			-1.06899156707242,
			0.882740380693446,
			-0.67599706177419,
			0.0982429928081108,
			-0.93657906900497,
			1.17926483529605,
			-1.19637474358756,
			0.614691793886562,
			-0.22746621304696,
			-0.65404564103972,
			-0.39652380645976,
			-1.16747353392692,
			-0.1006496366062,
			-0.5968569878065,
			1.13388917798174,
			0.981585580248801,
			0.382486841447311,
			-0.13723622379556,
			0.614172929031051,
			0.251660278063244,
			-0.30464014244306,
			-0.59825246873028,
			0.385062739046836,
			0.383335866247949,
			0.832559915549584,
			0.831575463087701,
			0.45614638796791,
			-1.53345786481015,
			-1.11382926140277,
			-0.65424353623152,
			-0.5399218267124,
			-0.46352007920277,
			-1.06125731515427,
			-0.23873985530958,
			0.233528505178035,
			-0.76165878074198,
			0.64090487645402,
			0.14074291644527,
			-0.6571811302758,
			1.28845886901554,
			-0.01477986038723,
			-0.14251033653683,
			0.998403570096008,
			-0.30993943646278,
			1.63369468022016,
			0.720608171883811,
			0.363341122536195,
			0.355978065945148,
			1.36470304860436,
			0.28947486075078,
			-0.49245468051192,
			-0.6244361837576,
			-0.10871975011439,
			-0.05316642847306,
			-0.72597138203016,
			0.121773515903429,
			0.230912211473371,
			-0.84613079292073,
			0.508901631274186,
			-0.86244888619308,
			-0.14891425626559,
			-0.3018977541388,
			0.355516162883162,
			0.202532231305388,
			-0.81807779068242,
			-0.713516277833,
			-1.04017449160968,
			0.784260204371745,
			-1.62446734837811,
			-1.1669126627832,
			-0.27523638652508,
			0.851121086842836,
			-0.2778670860592,
			-0.05091454189326,
			-0.36128106569807,
			0.752214726318975,
			-0.4508689744875,
			0.831092020047967,
			0.193372796477827,
			-0.5127371049603,
			-0.34701986458304,
			1.71369793692366,
			-1.40645197150733,
			1.56139819855517,
			1.42538568111801,
			1.03159286213567,
			-0.90287563569284,
			-0.43386392376801,
			-0.55308702596675,
			0.539180840394553,
			-1.71776563445008,
			-1.32042274661067,
			-1.83263848195475,
			-0.44152828704319,
			-0.01713324826907,
			-0.50121752201657,
			0.719355871632838,
			0.744700210450768,
			-0.83163875830654,
			0.692332914510398,
			0.646133664739316,
			0.559035628103428,
			-1.12025884540429,
			1.03674868478863,
			0.579199005154736,
			0.308064113223315,
			0.670345676800985,
			0.403306943475094,
			0.123754204538964,
			1.04923972811337,
			0.606003459009104,
			1.55804395528837,
			0.607473904293281,
			-0.36012410090628,
			0.98915194140446,
			-0.08750763162873,
			-0.73509265486388,
			0.05631433385708,
			-0.67503586623754,
			-0.28546032229837,
			-0.69469503915762,
			-0.04998476247131,
			-0.72700232658451,
			-0.29271437544044,
			-0.33727345380282,
			-0.36258512707478,
			-1.29844388550055,
			-0.68178621589862,
			-1.49386243025992,
			0.876615342216483,
			1.02477507018902,
			-0.97177185413153,
			0.850904443115983,
			1.24563972881404,
			-0.03758593398954,
			1.80413998361154,
			0.845087937345169,
			1.31604681491553,
			0.123944531833154,
			-0.69566406604587,
			-0.17578101010142,
			-1.2347986046625,
			-0.67100099990855,
			0.485232004124182,
			-0.68352637779994,
			0.0982828113558279,
			-0.17286992588241,
			-0.14975848419341,
			-0.57697271932898,
			0.802427139554623,
			0.000674729765220456,
			-0.53316120235914,
			0.474932167565134,
			0.369561725818938,
			-0.58590426369434,
			0.207629438183288,
			-0.52834109643853,
			0.771677279176957,
			1.14507224138926,
			-0.08910235501319,
			-0.53247583365335,
			0.324839859549894,
			-0.73122181746888,
			0.561609711023153,
			-0.15527253139125,
			-0.45990275770454,
			0.885596231447538,
			0.653639480118973,
			0.215925478706779,
			0.69853843971947,
			-0.25654744932882,
			0.905575540008693,
			0.334453172761917,
			-1.07892420033565,
			0.707134356138721,
			0.224981679806348,
			-0.55441786901571,
			-0.76662958549451,
			-0.74475669842775,
			1.11565344762487,
			-0.44268369792396,
			0.659056941931335,
			0.800715186508767,
			-0.16367844013927,
			0.703100598650312,
			0.632366694051901,
			0.147324616251073,
			0.637244469063047,
			-0.429764171539,
			-0.0675317618009,
			0.929516571509521,
			0.841451324482059,
			-0.50089179105748,
			0.737915186395376,
			-0.35039112194893,
			-0.15348396021518,
			0.536077269422342,
			-0.77435875939414,
			0.0196016693659857,
			0.365459861339822,
			1.07289143292206,
			0.396508048383784,
			-0.47593165503117,
			-0.35479748377934,
			1.13403511012909,
			-0.50259833909398,
			0.902307292205851,
			0.466709920166927,
			0.121969898595549,
			-0.25633381432774,
			-0.01145353823466,
			-0.1045795361318,
			-0.23265870697795,
			-0.67276935912117,
			0.808137387180485,
			0.10743427126717,
			-0.42073548393189,
			1.0189567894794,
			-0.85662586433611,
			0.262117714564639,
			-0.11754503877252,
			-0.46372354035559,
			0.9714386083223,
			0.471935363726683,
			0.983022328298689,
			0.579309291838613,
			0.959182075960912,
			1.09058636857701,
			0.982413951283952,
			-0.74648464628509,
			-0.75202596301656,
			0.548959577694741,
			0.849688495590522,
			-0.05945782425112,
			0.222196604563002,
			0.162014592200711,
			0.243306003902758,
			-0.7187667463949,
			0.925061986236254,
			-0.27432714517006,
			-0.05208830137372,
			-1.11628724045864,
			-0.46030993733614,
			0.509739766492899,
			-0.00151491182531,
			-0.24565010987198,
			0.201507757006052,
			0.418371773934585,
			0.0776971444095005,
			-0.54379209067187,
			-0.10076514318579,
			-0.31120857931442,
			-0.63541140142691,
			0.291243621233297,
			-0.1182277479044,
			-0.41005262022561,
			-0.93219475699085,
			0.541281493307476,
			0.222133661912045,
			1.15346066438794,
			-0.85210302229384,
			-1.09089971016857,
			-0.55103865816668,
			0.240059286672844,
			-0.55841895341629,
			0.867235402521862,
			0.105229939459452,
			-1.56444542163327,
			0.363458164512816,
			0.149487193420665,
			-0.74644243950774,
			-0.46636108758923,
			0.200684019578749,
			0.350889205560447,
			-0.02507920220961,
			0.51419612233579,
			-1.35474537632882,
			-1.26365441818572,
			-0.87906563860291,
			-0.05608880848738,
			0.190623237175225,
			-1.80375079705136,
			0.305889617972332,
			-1.2470332580347,
			-2.20930875795362,
			-1.82555713087564,
			0.569475896260189,
			-0.49607169758932,
			0.431155576710255,
			-0.13378434001962,
			1.22425536639762,
			0.38967136867076,
			-0.26903954233046,
			-0.13883303025455,
			-0.38416844661809,
			0.241942156833005,
			2.12192431975998,
			-1.09463387140112,
			1.39585339031025,
			0.993381037856309,
			2.3535945547273,
			-1.48532585622585,
			-1.73334271127188,
			1.74982224450488,
			-0.70638742890848,
			-2.20454919545149,
			-1.54589266905801,
			-0.37031844962312,
			-1.87916260741515,
			0.629618461690892,
			0.372587297816347,
			1.35943418054556,
			1.36887353538854,
			-0.81773346842297,
			1.05401012880234,
			0.410544267116156,
			0.608186792241668,
			0.00217024969506191,
			0.676619106946914,
			-0.57293701484268,
			0.749003757415629,
			0.16742081812892,
			1.18993710901208,
			-0.50446211319033,
			1.1578872562816,
			-0.42402656982624,
			1.69481677706125,
			2.41964456079234,
			1.24633506971001,
			0.360307604682725,
			-0.85439101336302,
			0.516106468139547,
			-0.77333080276487,
			-0.31443209463745,
			0.215547440096458,
			-0.88996462181299,
			0.104615618352042,
			-1.35473502538342,
			0.0644580853178356,
			0.708926252556184,
			0.524827139913363,
			-0.51106608337381,
			-1.20868171202067,
			-1.38646003835009,
			0.486787070479496,
			1.38451675852218,
			-0.99296883053309,
			0.568343825410432,
			1.12266791026469,
			-0.03106922085939,
			1.76939390370899,
			1.11683654946655,
			-0.46499016472903,
			-0.38290201840771,
			-0.5221176279083,
			-1.61518662538889,
			0.632278754641807,
			0.0147712416113405,
			-0.85564796408272,
			0.219806493774856,
			0.0444048044974687,
			-1.16984871883675,
			-0.14422945449563,
			0.263750248538325,
			-1.1296708768252,
			-0.38618290856296,
			-0.57166992778707,
			0.685963858502651,
			-0.78989238252919,
			1.69911565853504,
			0.376850609479282,
			-0.35613029089863,
			-0.13126974311124,
			-0.10560297940149,
			0.229472580630946,
			0.374233608177951,
			0.365689907834701,
			-0.03752570242119,
			-0.89695923026383,
			-0.12300228850218,
			0.877839139558635,
			0.861006740699136,
			-0.93920044740206,
			0.611364258098691,
			-0.30236848524649,
			-1.00054676325939,
			-1.06188437193871,
			-0.47362109629683,
			-0.01652968183529,
			-0.80495709805332,
			0.304857633404832,
			1.5131814009094,
			0.533327355700354,
			1.94363314307559,
			0.559047436761432,
			1.18366271854513,
			-0.73485042734816,
			-0.10123859568582,
			-1.2480585642803,
			-1.09084108448721,
			0.570667311847234,
			0.414841463226519,
			-1.15298264283381,
			-0.68347394810904,
			-0.15644375817663,
			-0.85246938927681,
			-0.80851344552168,
			-0.81376355676065,
			-0.53928528731711,
			-0.45966975218608,
			0.389075231496547,
			-0.01888220547543,
			0.978745511407706,
			-0.54326629466065,
			0.732660951037932,
			-0.5595884354403,
			-0.75226675299862,
			0.148318188815048,
			-0.3869119957816,
			-0.74348647546964,
			0.496417266489995,
			-0.73754145907849,
			-0.35620862036625,
			-0.267157638617,
			0.572700211104179,
			1.47915276993827,
			0.868743755497394,
			1.1197499612634,
			-0.11960407676602,
			1.34367202703179,
			-0.29023505655261,
			-0.45987768528912,
			-1.2360884368779,
			0.139674859923109,
			1.12733396189488,
			-0.99468418637135,
			-0.72872412163966,
			1.18140238043025,
			-0.13022272971578,
			-0.24389096278907,
			-0.3096050096763,
			-0.95283737861907,
			0.998505265760816,
			0.371855396352074,
			0.207612699279483,
			-0.08787580417819,
			-0.86763013616432,
			-1.0735836288254,
			0.363466081734015,
			0.430971545008906,
			0.0409548006245047,
			0.113138569554881,
			-0.95602149606731,
			-0.93032328954155,
			-0.33642795059213,
			-0.47986246921953,
			0.114393965950112,
			0.652588096990742,
			-0.04448549200132,
			0.123575021423312,
			-1.21403668427108,
			-0.36981428373095,
			0.302193802508094,
			0.515658708080838,
			0.0811215584707905,
			0.178026509069145,
			-0.23927040512442,
			0.175230757633465,
			0.500889916699954,
			0.720560570435746,
			-0.67096042390705,
			0.068872221348897,
			0.738917177075897,
			-0.12075150517879,
			0.00896685707459633,
			-0.57373164004605,
			-0.27514826676779,
			1.01471732030788,
			-0.08338449588754,
			-0.78715790305859,
			-1.00923419348254,
			-1.26729357377925,
			-0.10526497483321,
			0.455941956611887,
			-0.20873133696545,
			0.52778200467552,
			-0.29810225052894,
			-1.22843019287075,
			-0.6570589577996,
			-0.67569316034815,
			0.508682593227039,
			-0.21932342653545,
			0.624884972262043,
			-0.8158725336905,
			-1.21938400354452,
			0.619940159911715,
			0.0909601168690934,
			-0.59435366510405,
			0.923354801777059,
			1.04664254366978,
			-0.24402512051519,
			-0.7752474705886,
			0.364586989569901,
			-0.30051512668321,
			0.0349587702790697,
			-0.9856967153804,
			-0.02908879563259,
			-0.29153022225907,
			0.823606961483484,
			0.0616267978481776,
			-0.22966575891184,
			-0.42356553345303,
			-0.12611067150109,
			-1.03952308620258,
			-1.21815621720469,
			-0.57500779024817,
			-0.8998825183527,
			2.74380312585411,
			-1.05525818684915,
			-0.97396691379308,
			-0.91941201596766,
			0.0261577995704806,
			0.52991979796212,
			-1.29920441698055,
			-0.72351135067532,
			-0.87158819353072,
			0.394321321212024,
			-0.89579737418996,
			0.646128764298474,
			0.805757729630164,
			-0.83692040787318,
			0.734137464506984,
			-1.00889401838248,
			-0.03414522330517,
			-0.22252859197387,
			-0.2273574912534,
			-0.52600840057516,
			-0.34884676797202,
			-0.9931349259777,
			-0.71681451999234,
			0.840813157997181,
			-0.01938747510425,
			-0.75874388572501,
			0.693028269601485,
			-0.18215582261771,
			-0.60603162459399,
			0.596518417406162,
			-0.69982791199447,
			0.7436173402186,
			-0.0251078479189,
			-0.19212585017228,
			-0.35109156095513,
			0.992134485744697,
			0.104011293786158,
			0.221016165701167,
			0.113844027912819,
			-0.03349880492705,
			-0.29736190934371,
			0.675924561008646,
			0.137242903544623,
			-0.59158639357334,
			0.715093878434845,
			0.213589510501433,
			1.92345194564953,
			-0.96187281114496,
			0.0600437573882757,
			-0.94552173803663,
			-1.42095165293352,
			0.381262481554374,
			0.702122703178612,
			-0.47853039654447,
			-0.37361650003147,
			-1.10730527657663,
			-0.91835806268386,
			0.247625608658971,
			1.78410876370693,
			-1.83884478158114,
			0.875144790147067,
			-0.69971441872001,
			0.16543525059873,
			0.417595001935335,
			-0.32811753855103,
			-1.10252616428162,
			-0.70966263518721,
			-1.11157257586582,
			0.555716014770377,
			0.30618961338378,
			-0.57679728804805,
			0.115711581238268,
			0.535963988091021,
			-0.47089902795261,
			0.224137617649197,
			0.961633157165069,
			-0.7132195079937,
			-0.61280337284115,
			-0.14032430759449,
			0.635969529659028,
			0.782980266814665,
			0.161309998712786,
			1.04020164703928,
			1.51545422218675,
			-2.70262641140016,
			-1.33678792086259,
			-0.01420138646978,
			0.740800368503051,
			-0.69166335452669,
			0.242697566507945,
			-0.52488567090149,
			-0.46298344812821,
			1.17233439628137,
			-1.42251622162088,
			-0.48102076464905,
			0.175070365246799,
			-0.47357975297949,
			-0.15138906671057,
			0.91649383962047,
			-0.51642494068867,
			-0.19335994366492,
			1.17116846137798,
			2.22987727071966,
			-0.43244600755008,
			-0.1621375499904,
			1.1215821184086,
			1.05766497541378,
			1.05213156290071,
			-0.02296874501824,
			1.2417458974014,
			-0.25431271266701,
			0.199889394678475,
			0.916082688378868,
			0.808037479011541,
			-0.46193115183192,
			-0.37611579465546,
			-0.11051918744233,
			0.013299077491961,
			-0.68012283741109,
			0.027253623039735,
			-0.35088089226554,
			-0.10854561265009,
			0.222395864108145,
			-0.45977417915562,
			-0.71967692633587,
			1.37059477330455,
			0.657792674050491,
			-0.76830297208261,
			-0.8955379347493,
			-0.6763107405207,
			-0.65028004307069,
			0.251026925868102,
			0.721319025313194,
			0.7348161246768,
			-0.30259859152235,
			0.0252132637449769,
			-0.15137976722429,
			-0.51014550404654,
			0.69502532446514,
			-0.68545461207774,
			-0.40632119151887,
			0.523059173646508,
			0.758993674207687,
			-0.37424076832178,
			0.759695250045062,
			-1.4446707528128,
			-0.69832337459665,
			-0.71045849839129,
			0.366863989469274,
			-0.59197109303048,
			1.06249525830082,
			0.30021646242366,
			-0.53789242662274,
			0.599923650846968,
			0.906594923206256,
			-1.11430887883049,
			0.139762382644025,
			-0.41192899707719,
			-0.95962894822351,
			-0.39223074507884,
			-0.37553963297761,
			0.685221392433962,
			-1.16916856966036,
			0.148312445884175,
			0.375965382629858,
			0.55412464529787,
			-0.7471751607002,
			0.706655771351058,
			-1.37275716709714,
			-1.85240751427011,
			1.56582997730778,
			0.820448658598874,
			-0.95037021773434,
			1.21041274059674,
			-0.60608472315376,
			0.787201591983423,
			2.00930927359723,
			0.554022071163523,
			-1.75735308083583,
			-0.12230562565303,
			-0.05316678492586,
			0.463850626543278,
			0.817441842331153,
			0.994312841284797,
			0.295715524837226,
			-0.61534862351585,
			1.03169964699782,
			0.247450731656868,
			-1.39418219168723,
			-0.79445147230054,
			-0.67197830665638,
			0.109004111468223,
			-0.2436110365012,
			-0.12802725156127,
			0.341589713233711,
			-0.46515337588461,
			0.467564751249339,
			0.444728324147657,
			0.390765263277515,
			-1.00937901914715,
			-0.71544767781201,
			-0.613177867265,
			0.290562562969056,
			-1.06331632959995,
			-0.91842255138052,
			-0.54601397838712,
			0.522094946398006,
			0.43317890108974,
			0.510870199165398,
			-0.47848118850311,
			-0.28233431743414,
			0.194167826673186,
			0.308063198543267,
			0.923040576998351,
			-0.22823201298645,
			0.00384550326728106,
			0.303084366075466,
			0.386188210720262,
			0.616558461925813,
			-0.01352518907714,
			-0.69735911927686,
			0.204287727880886,
			-0.67853753594478,
			-0.72720040654385,
			0.460935002485157,
			0.786391761864049,
			0.335869063923548,
			-0.22702649250036,
			-0.44756155756128,
			0.768472933063706,
			0.2330963036566,
			-0.62343210306903,
			0.559325234309781,
			0.0723098611222908,
			-0.79226675740255,
			0.372549876047899,
			0.154798333183254,
			1.09210890976515,
			-1.32566160968315,
			1.2011720291021,
			-0.19521267000109,
			0.449024170554914,
			-0.8372336328187,
			0.722920872260614,
			0.38695486300926,
			-0.2191041641297,
			-0.85172405351373,
			-0.97309240688635,
			-0.38277857404589,
			0.042008820355816,
			0.702348598423161,
			0.54248200045082,
			-1.38940502417281,
			0.133160292207548,
			0.109527940480733,
			-0.49627161144666,
			-1.70009610817498,
			-0.38401836545727,
			0.0563493351741845,
			-0.59069300037029,
			-0.28640021647804,
			0.762942899477941,
			-0.17842222584138,
			2.00786160752514,
			-0.56030835088617,
			0.374912506253244,
			-0.64654761636432,
			-0.21123295257557,
			-0.55723461379693,
			0.102703943378406,
			-0.9851826962164,
			-0.67861226194035,
			0.114627127050302,
			-0.40724424633183,
			0.109844793010295,
			-0.92761652081467,
			-0.18470443602378,
			-0.50863885612507,
			0.766836370916272,
			-0.14332788872928,
			0.854200293019697,
			-0.67108859775837,
			-0.8546251045626,
			0.879959383677735,
			-0.66566695180069,
			-0.33698454698684,
			-1.07215907752484,
			-0.37865107618642,
			0.370394123994656,
			0.282462212662904,
			-0.21903202439328,
			0.566596597085818,
			-0.48438323947793,
			-0.79145024363351,
			0.586856697334382,
			-1.37342715822445,
			0.736111216601973,
			0.131270097133167,
			-0.91274966115932,
			-1.28190809726772,
			0.354002436762451,
			0.89821915270659,
			1.32434538292327,
			-0.74811254768036,
			-1.59936791931895,
			-0.97455542178712,
			1.50720966701804,
			0.140929179862918,
			1.23665618007851,
			0.680486976982219,
			0.739677654611672,
			1.26565263830293,
			-0.04119111989429,
			-0.30495685975791,
			0.692722368660718,
			0.545649973521068,
			0.469819569311717,
			0.177398540365166,
			0.0109251340210082,
			0.7497155865425,
			0.563080551524235,
			-0.83187686541169,
			-0.87158048305935,
			0.571414275292847,
			-1.0692244170025,
			-0.3076412976047,
			-0.54913135660958,
			-0.46245485663364,
			0.381421933331044,
			-0.72284951333513,
			0.0199940208702987,
			-1.20939724008331,
			0.507684608128531,
			0.0575785065167908,
			-0.02454337189324,
			-1.27243417789402,
			-0.45158901900487,
			-0.47596406391061,
			-0.70849555715572,
			0.0590542797618516,
			-0.71520497698589,
			0.593634218463443,
			0.23620436945884,
			-0.96859208907731,
			0.256694810466614,
			0.625162589869132,
			-0.27732061549427,
			-0.82772308075053,
			0.265072320720008,
			-0.01012577216906,
			-0.34865438098155,
			0.0341885400113389,
			-0.80403040822049,
			-0.48480542207133,
			-0.56094845015495,
			-0.69885252223263,
			0.540808611228567,
			-0.86465282294452,
			-0.35390980130607,
			-0.80489470739591,
			0.376956664535426,
			0.182109787388442,
			-0.59600886477086,
			-0.21488666488424,
			-0.48825153758278,
			-0.58157937126946,
			1.32567717305942,
			-0.3287999731463,
			0.564776217346321,
			0.0347271542193155,
			-1.24250042233873,
			0.0388324757789748,
			0.813400424419175,
			0.492804191778825,
			-0.9101415164264,
			-0.44327801732484,
			0.416216191027847,
			-0.54724814559722,
			-0.94385145399682,
			-0.79503597430929,
			-0.18807992352882,
			-0.41667808911608,
			1.22452428169597,
			0.249724075290973,
			-0.62794112756051,
			-0.8303426407595,
			1.40969153263108,
			1.51892349267434,
			0.381615417498424,
			0.419269975542559,
			-1.15455612592858,
			-0.11877522680454,
			0.292557560335371,
			0.123788135470764,
			0.165598317287715,
			-0.90975310046361,
			0.926467518074867,
			-0.92153222138358,
			0.466142079939374,
			0.865386553615146,
			0.481727547860911,
			-0.73750382330907,
			-0.66560249787957,
			0.834893580271253,
			0.323022125095863,
			-1.04036973426226,
			-0.48657166717686,
			-0.33160221337275,
			-0.63320198370517,
			0.660105167801498,
			-1.02867551730461,
			1.11347007741407,
			0.946510938293062,
			-0.63843104390747,
			-1.13503474380483,
			-1.17318964706157,
			0.671137903080639,
			-0.02386761836472,
			0.725706102956492,
			-0.10722801027775,
			-0.76234343236629,
			-0.02909437846648,
			-0.17100364283877,
			-0.1756208180826,
			-0.14316249967461,
			0.864405951271243,
			0.642487609731185,
			0.744253984120209,
			0.204689832658508,
			-0.33105608443196,
			1.06296554188053,
			-0.13385567570116,
			-0.15231815491685,
			0.371194891587383,
			-1.00521491740154,
			0.295878158952649,
			-0.51443871150983,
			0.366521256074274,
			-1.02744384744032,
			0.557176700187617,
			-0.38324529027699,
			-0.58156250452121,
			-0.01988696993236,
			0.169487023373166,
			0.632645122313082,
			-0.22656136341082,
			-0.62974978268358,
			0.238175970929628,
			0.17953516783413,
			0.365215599967849,
			-1.14203818920742,
			-0.85437591370962,
			0.756991824619596,
			-0.80839765447247,
			0.369669490417968,
			-0.72552188428133,
			-0.76431792325172,
			0.129548340963495,
			0.116943762281012,
			-0.46823015860671,
			-0.36289237934635,
			-0.01850647832522,
			-0.79676556018901,
			-0.68541023351181,
			-0.59359980450409,
			-0.98672973639629,
			0.432693491209287,
			0.371687005760698,
			-0.08765682475449,
			-0.33065027694208,
			-0.21803646543681,
			-0.9789952462105,
			-0.45257244240739,
			0.283095602128702,
			0.849658103874941,
			-0.71284089418759,
			0.0455226469883166,
			0.44960966043218,
			-0.37529072312767,
			-0.29507732263909,
			-0.17708938462058,
			0.455135660720547,
			-1.20607682669245,
			0.658924108326329,
			-0.5845465681087,
			-1.18006042860062,
			-0.52941553250403,
			-0.06038586026274,
			-0.77748599582659,
			0.0991669981411035,
			0.607285086181822,
			-0.25150402885313,
			-0.23885560375534,
			0.217975108548505,
			0.493594619894016,
			-0.35915919218011,
			-0.92375678868785,
			-0.64699454642161,
			-0.86987772928753,
			0.744910767226455,
			0.203530157959311,
			0.303781124323998,
			-0.44265986136298,
			0.565100021360534,
			-0.28413040997234,
			-0.6904742707294,
			-0.53429028834224,
			0.145895226103704,
			-0.8449028029442,
			-0.99602629594751,
			0.159953434578304,
			0.221049492769942,
			0.704161030922455,
			0.679113998254356,
			-0.60030940710605,
			0.666526544785999,
			1.49453195773654,
			-0.76025664922731,
			0.982701896442783,
			0.337634778387124,
			-0.39799264711098,
			0.626291302439782,
			-0.40570603585052,
			-0.99771926942712,
			0.226866107978983,
			0.203563010179994,
			-0.47930403978652,
			-0.47980091616723,
			0.465844367244736,
			0.431006896007533,
			0.95623467131978,
			0.0535150616289574,
			0.366557878333528,
			0.863492987990384,
			-0.05347058251116,
			-0.25680335889601,
			0.220078580577372,
			-0.23500190459933,
			0.965697311860317,
			0.00184157209263283,
			-0.27841584390218,
			0.426449474248498,
			-0.52182828077042,
			0.580405010606883,
			-0.66226249709919,
			0.705619909043263,
			-0.55882787300746,
			-0.41853167052129,
			-0.94912237522078,
			0.368576301921273,
			0.188087419372417,
			-0.67396012524412,
			-0.50002060381291,
			-1.42721590954448,
			0.411991439744941,
			0.340835349306881,
			-0.49149473530425,
			-1.28238214962777,
			-0.65166945752522,
			0.303996943215565,
			0.470437483757764,
			0.106808463593871,
			1.59788057699696,
			0.7617420198772,
			1.31638440682773,
			-0.78662515412368,
			-1.06049786733074,
			1.17645663079469,
			-0.75912595462178,
			-0.15640950630893,
			0.107216084512134,
			-0.63257890286211,
			-0.23927682874878,
			-0.49170642587823,
			-0.46145391621723,
			-0.46930297952376,
			-1.09356024342595,
			0.273310541662254,
			-0.54408944750548,
			0.4323389076645,
			0.425700904885402,
			0.293467658810589,
			0.0275881834032276,
			0.4257344704103,
			-0.20043019842313,
			-0.15652126430503,
			-1.16034395070406,
			0.424956420226313,
			-0.44827120464368,
			-0.26491641353194,
			-0.74528594151432,
			0.578030953912237,
			0.161447169091848,
			0.62644980330283,
			-0.05860797926302,
			-0.53035710585288,
			0.19677927624238,
			-0.61961591902167,
			0.421893859879184,
			0.619723065104632,
			-0.01373080183503,
			-0.64883468091586,
			0.0305730027080962,
			-0.44209588749056,
			-0.56995910880371,
			-0.36815200689988,
			-0.10403481076967,
			-0.25603736869705,
			0.325880422015187,
			-1.1104136376113,
			0.489278410355573,
			-1.36645215704461,
			-0.8938009663652,
			0.0886055051339335,
			-0.05780245405877,
			-0.82838005513525,
			0.186014728805532,
			-1.47048940396735,
			0.409128548713435,
			-1.17748159841965,
			0.502500823811495,
			-0.83154339724817,
			0.0580723291581521,
			0.131461351510496,
			-0.71175671886293,
			-1.20613961278711,
			-0.00792991368416,
			0.94729789169266,
			0.119702995167658,
			0.248765028806848,
			0.316663384542939,
			-0.75943004049279,
			0.407330477640396,
			0.375731678901967,
			-0.47424235738549,
			0.698286493710276,
			-0.89428375103253,
			0.0683691295154342,
			-0.59317042683599,
			-0.5896439179636,
			0.426490004471787,
			-0.49164205531063,
			-0.63649100381541,
			-0.51862686334787,
			-0.71511886421047,
			0.498021281661406,
			0.215455809850687,
			0.0167721565990255,
			0.0873439303495163,
			1.41989730524056,
			-0.30645878155163,
			-0.17737578372986,
			-0.12491055727427,
			0.0350164747901094,
			0.727657702289099,
			-0.90982808103325,
			-0.44481318463452,
			-0.29531974248905,
			-0.80218018202261,
			-0.42179843973696,
			0.143907493771476,
			-0.70512845360875,
			-0.90134911473243,
			-0.71236650945649,
			0.817343319087758,
			-0.98600252527298,
			-0.00661325124888,
			0.294187430067828,
			-0.52228503434327,
			0.759992416520642,
			0.655765707880263,
			0.152774814392908,
			-1.23422577831052,
			-0.59923241626109,
			0.329493626110916,
			0.208851532493983,
			-1.41842881843285,
			0.220639649783157,
			-0.05198540018792,
			0.437453228998966,
			0.29436681269576,
			-0.14001652027733,
			-0.81657382722801,
			0.645806098241063,
			-1.33424118228461,
			-0.25791775107523,
			-1.06843297163258,
			-0.61867904448013,
			0.347756847690116,
			-0.82721156327319,
			-0.02526299479575,
			0.443086632602901,
			-1.09721051822324,
			0.21367401874512,
			0.948496443377443,
			0.987839647971606,
			0.485046904819677,
			0.446326103303046,
			-1.06328173655232,
			-0.66651774773556,
			-0.08566871572776,
			-0.5337938132068,
			0.192436540162384,
			-0.80383246038669,
			0.22342545898979,
			0.40321392257562,
			-1.06358700622732,
			0.315876311259193,
			-0.74617261855758,
			-1.01935774025379,
			0.390280179039088,
			0.413579834964896,
			-0.63179014155043,
			-0.21585569531832,
			0.650341565305351,
			0.614884462196516,
			0.0571125518808772,
			-0.68137457876339,
			0.284860110927392,
			-0.4416757520708,
			-0.07044516125339,
			0.681549144649137,
			0.0470967358002298,
			0.0746373468707691,
			0.172575346287137,
			1.31263514200019,
			-0.77248183160131,
			0.517266217921204,
			0.154639029238192,
			1.30923353723668,
			-0.68340866572121,
			-0.75941406029857,
			0.500433850030394,
			0.329215931258762,
			-0.20027696020381,
			-0.85367084757773,
			-1.1318525851285,
			-0.91261028199578,
			-0.01150706366064,
			0.531158420418275,
			0.0264173406272979,
			0.348989886913064,
			0.557175980670002,
			-0.06868161032458,
			1.34833053118849,
			0.695365171449051,
			0.0276319151550536,
			-0.47219190775136,
			1.01466171319137,
			0.793624428551026,
			0.877521849329017,
			-0.23746199612687,
			-0.23571260798334,
			-1.1541582107476,
			-0.62128023887466,
			-1.35565268724216,
			-1.14303019789263,
			-1.12417177841663,
			-0.10742859063018,
			-0.21764376394181,
			0.259764496594703,
			1.00112119731241,
			1.15663986054369,
			0.165245595703623,
			1.14151122056785,
			0.3396770025728,
			-0.3846340420233,
			-0.64116643603868,
			0.173846755317307,
			-0.56573318443272,
			2.00677001685611,
			2.3121060568967,
			-0.69308380681171,
			-0.41808648040119,
			1.61288104902404,
			-1.16925493370439,
			-0.45801140513799,
			-1.05231467799749,
			-0.94091049792603,
			-1.06985749018384,
			0.768098421504703,
			1.08798452956391,
			-0.71089757005968,
			-0.35224174154277,
			0.578619465798321,
			-1.41252890659055,
			1.05482568716198,
			0.625594640506802,
			0.736511705322251,
			-0.47019680646763,
			-0.16778520001557,
			0.134221451249989,
			0.211455480323273,
			-0.14086152731379,
			1.02758673389128,
			0.850200360899635,
			0.595542788510483,
			-0.65552479392869,
			0.16555621648225,
			0.915545675931321,
			0.93999670410077,
			-0.65300233781947,
			-0.49129027887815,
			0.552933519028019,
			-0.8278513651363,
			0.231886795479363,
			-0.31923803619399,
			-0.05482994033584,
			0.767628066916447,
			-0.1050862170276,
			-1.00989229153107,
			0.111842537923973,
			-0.11239961835192,
			-0.03710974841893,
			-0.95949590297347,
			-0.15534776340625,
			-0.36398903488943,
			-0.16118414189538,
			-0.40056391710968,
			-0.08260720916518,
			2.94009005539788,
			-0.17137306472322,
			-0.33860101196607,
			0.162857254753891,
			-0.75028190561371,
			-0.26431337910853,
			-0.00018568593684,
			-0.87160355034066,
			0.615605650116057,
			-0.81686148917132,
			-0.39612317206444,
			-0.37625532171624,
			-0.63734748508927,
			0.611025542714505,
			-0.74832884663852,
			-0.60035690109884,
			0.413115262641769,
			0.0822100698472875,
			-1.04380963157466,
			-0.09945581237186,
			0.0750486838511186,
			0.159745438513917,
			-0.54533207643054,
			0.227751266588364,
			0.461236867100915,
			0.393136892712008,
			0.147920886159301,
			-0.44321530681039,
			0.00276182692599634,
			0.315052643528366,
			0.587402510407221,
			0.9214534901329,
			0.532186405815451,
			0.550146421302551,
			-0.54811499240446,
			0.360720460472979,
			-0.90919134416044,
			-0.79601732264783,
			0.552793628172285,
			0.479145488076343,
			0.83147948333693,
			0.772841565703529,
			-0.58454229997069,
			0.24232844237806,
			-0.43748966497304,
			-0.71181371027118,
			0.735836628117385,
			-0.23445610814779,
			0.403477428436951,
			0.490366036686356,
			0.947397033700731,
			-0.19943640371557,
			-0.4763027576139,
			0.948561108068919,
			0.542837737603448,
			-0.01276439259223,
			1.16934332926406,
			0.727081510152565,
			-0.5868330373546,
			-0.54497875915515,
			0.369694163245864,
			0.333873915460596,
			-0.10604604443892,
			1.53908926082416,
			0.640404726907541,
			-0.30357458189948,
			-1.27442951045955,
			-0.95310199923491,
			0.760330786831612,
			0.130286328564057,
			0.465750977187769,
			0.124738598972528,
			-0.7887900886404,
			-0.16891052263755,
			0.673811239767329,
			-0.56630786216854,
			-0.61208275982369,
			-1.16441978522072,
			0.760960739760895,
			-0.59448919025235,
			-0.61620879874697,
			0.644170087098673,
			0.645378048761926,
			-1.43488524014225,
			1.15757699622654,
			0.971532290244538,
			0.902226479009528,
			1.00271165743873,
			-0.73891214443608,
			0.163613662012489,
			0.581251681906767,
			-0.76629881964037,
			-0.9746383954005,
			-0.42689620655887,
			0.236231516078731,
			0.0201107637777152,
			-0.41134850623646,
			-0.42853310307879,
			0.10799702313778,
			2.10502452062519,
			0.192578328776174,
			0.0376903762244544,
			-0.25188811916335,
			0.14043122445752,
			-0.56877488186275,
			-0.79433333474881,
			-0.49225362743935,
			0.130765134285634,
			0.930186656592293,
			0.010176053957433,
			0.452409966503684,
			-0.69007766459868,
			0.800216004520925,
			-0.82451390572102,
			0.522983504566887,
			-0.51320717395315,
			0.766328988489405,
			-0.45162568843118,
			0.491482219521712,
			0.720698421875633,
			-0.77691056985231,
			-0.46712090827559,
			0.646800264021318,
			-0.77042187500949,
			-0.11343934436591,
			0.338871180408939,
			0.351188070708569,
			-1.25232851086756,
			0.0681214964184705,
			0.979866260544606,
			0.949187985596392,
			-0.6589451109195,
			-0.31126010634807,
			-0.42914978052733,
			-0.40919415685716,
			0.626542540617419,
			0.128678188688065,
			0.612229523910162,
			-0.12593619830991,
			0.0299798941838343,
			0.124196846281853,
			-0.46163485709364,
			-2.21093223935275,
			-0.51458675960996,
			0.41507519739862,
			0.218671047142301,
			0.775806681342221,
			-0.56882739521348,
			0.974518042891835,
			-0.42720072289478,
			-0.20319830019827,
			-0.07124762094209,
			-1.40387400358141,
			0.0230798730224599,
			-1.32104684883495,
			-1.09103704637352,
			0.223775461319416,
			0.455800702970964,
			-0.49774851098786,
			-1.26215858748209,
			0.559839601738842,
			0.165213502316026,
			0.0333286505304318,
			0.0384109223834233,
			-1.54235939238443,
			-0.4826505432144,
			-0.48230653724848,
			1.43813231754349,
			1.083785462324,
			0.403176319675886,
			-1.01182994489977,
			-0.73887136075901,
			1.77383402849577,
			0.884348036168922,
			0.786990877941144,
			1.06000073816224,
			-0.75362965467674,
			0.290455154847836,
			-0.7910649306618,
			-0.86582184664837,
			1.46691635201283,
			-0.6640421499403,
			-0.7210319487449,
			0.594857628192918,
			-0.16321006942688,
			1.67527299006273,
			0.196940349278668,
			0.165852636192052,
			0.312209516810347,
			-0.38321175846207,
			-0.39201392170898,
			-0.02605151532284,
			-0.96185084236738,
			-1.28766822647111,
			-2.05495958494522,
			-0.16511462906572,
			0.0841056630077052,
			0.850258838789386,
			-0.1603914720184,
			1.06020648303972,
			0.86269004594667,
			0.0214416094661256,
			-0.7014790047992,
			0.662291309932488,
			0.265885897715597,
			-0.68014725825908,
			0.637411280519334,
			-0.96791215609906,
			1.06463958064446,
			1.42553165666172,
			0.807382357665993,
			-1.33470435200225,
			-0.81936056217276,
			1.2171618488319,
			-0.49195533597828,
			-1.41194618098738,
			-0.61027968639719,
			-1.34169016163147,
			-0.38536362641456,
			-0.49043781692627,
			0.970473119564777,
			-0.57420986584551,
			0.070353790416148,
			1.63256688904703,
			0.249851508973791,
			-0.45823969488813,
			-0.00845897190637,
			0.720784228787756,
			-0.50058194249328,
			0.487999877998884,
			-0.34493864679692,
			0.424720635973626,
			0.519267142985595,
			-0.21095266190755,
			-0.02005882340072,
			-1.11172328402333,
			-0.80418420890496,
			-0.0594902448981,
			-1.10086786989294,
			0.282908236356863,
			-0.65414350363205,
			-0.00101250393423,
			0.129735128465605,
			0.813874721368843,
			-0.78731449601926,
			-0.89899936942514,
			-0.71343573368872,
			-0.60191128463021,
			-0.16460865873293,
			-0.05364760425785,
			0.314468853831549,
			1.01243664929449,
			-0.68174784148655,
			-1.42893644046692,
			0.391172151694687,
			-0.59867988237768,
			1.82110853207019,
			-0.28568102584221,
			0.229632342894814,
			1.34931953053372,
			-0.6047419532876,
			-1.10449430349806,
			-2.08402359503461,
			0.22422978584227,
			0.768208743373476,
			1.07574815555104,
			0.306008509047528,
			-0.1036838373823,
			-0.19385991451921,
			1.20157288237143,
			1.15711990810541,
			1.50288673739245,
			-0.28612766297694,
			-0.74105626365376,
			0.0546686564859756,
			-1.02241049126628,
			-0.85599305668195,
			0.343347231024588,
			-1.54184816734353,
			0.190000966830591,
			-0.45686973198249,
			0.556693349891739,
			-0.3285485069516,
			-0.26740578806472,
			-0.46862983925883,
			-0.02022286430279,
			0.202930625462115,
			0.720301390162824,
			0.243954295647697,
			0.389641181810349,
			0.693893644154498,
			-0.92094168114938,
			0.689300221529693,
			0.0316644989673348,
			0.343453893757466,
			0.826054113250751,
			-0.75913345456505,
			-0.59287322834465,
			2.29925234474693,
			-1.36230913607732,
			-0.03248161889877,
			-0.89868266935616,
			1.78183790037941,
			-0.5334686940373,
			-0.69128235097364,
			-1.41451881418484,
			0.0373841466018285,
			0.0411831433489462,
			-0.55358355588547,
			-0.02113287232197,
			1.01082076190874,
			0.704684909691932,
			0.614527236975722,
			-0.28197386136463,
			-0.46639297230679,
			0.80928339501243,
			-0.10249741883554,
			-0.51083313634134,
			-0.77867284294954,
			-0.86429706619118,
			0.812257091066291,
			0.87638817464235,
			-0.07536458237309,
			-0.73462436697671,
			-0.50258924249053,
			0.572204464409628,
			0.0374254984148818,
			0.781981633791532,
			0.961761366499505,
			1.03187645777918,
			0.532787847727946,
			0.588975271615206,
			-0.67083049956264,
			0.132215637854547,
			0.367277756432887,
			0.141496864339317,
			0.103028493879749,
			0.922308874441305,
			0.277628311445378,
			0.983758179790748,
			-0.74713431751817,
			-0.96114603161447,
			0.874163107336043,
			-0.14457900611973,
			0.687519251772593,
			-0.60563302540033,
			-0.03543553741452,
			-0.30984438242384,
			-0.58825702936674,
			0.19660574656924,
			0.20394010532436,
			-0.85061960191413,
			0.647131483590632,
			0.967390527231264,
			-0.19234006328074,
			-0.92087728254945,
			-0.22034003161368,
			-0.31042987476376,
			1.03920760353587,
			0.110751821527886,
			0.463643254097024,
			0.892641768270372,
			0.0787430141176954
		]
	},
	"weights_output_hidden": {
		"matrix_n_cols": 100,
		"matrix_n_rows": 13,
		"matrix_values": [
			0.24907727099244,
			-0.21081036811513,
			0.853735366203565,
			-0.37952169822065,
			-0.51316038983046,
			0.813707650375327,
			-0.70625454083816,
			0.963788372465859,
			-0.52406909422304,
			0.829508407772819,
			-0.05105214574796,
			-0.40797781378041,
			0.580774493630916,
			-0.55105811782438,
			0.374179324650993,
			-0.10468045629447,
			0.761636439014889,
			0.240284114537872,
			0.590601133713304,
			1.47603306362092,
			-0.86380876472696,
			-0.19031335194271,
			0.718132430690844,
			1.29219573025415,
			-0.03487661285461,
			0.321868735199891,
			-0.73309732713002,
			1.1354401192345,
			-0.4725133576358,
			0.201563450881747,
			0.359538769063223,
			-0.6474955721653,
			-0.58746575485094,
			-0.51129356923248,
			0.0735116767701463,
			0.655674888033593,
			-0.46698095385401,
			-0.48252010845539,
			0.591457377592113,
			-0.6835897896428,
			0.363287284811259,
			1.35492680079209,
			0.970065520209427,
			-0.5082019970965,
			0.0285571682207867,
			1.21278446177473,
			0.0183321882569828,
			0.68046571355711,
			-0.76151856392228,
			-0.50089572870707,
			0.334174619032558,
			-0.40151134442774,
			0.618552922230874,
			0.541818689039651,
			0.042527650953897,
			0.896878829285024,
			-0.18499722369766,
			-0.9763121366865,
			-0.60597002393624,
			0.844636304256029,
			-0.68140414452945,
			0.638557080121334,
			-0.06756395527359,
			-0.4145714458873,
			-0.40307696690256,
			-0.51525283988797,
			0.600429374731006,
			-1.17471024080544,
			0.397937136014346,
			0.160707401423391,
			0.451841466856726,
			1.13922305698608,
			-0.20453175806744,
			-0.39889060295455,
			0.273371195860883,
			-0.11499893993762,
			-0.58647241787507,
			0.492041691286744,
			0.433496465687558,
			-0.21234450690106,
			0.805054309826734,
			0.966240510527758,
			-0.95890959575999,
			-0.10062811521796,
			0.713061074790308,
			-0.34052554435395,
			0.594113108074355,
			-0.31757290729884,
			0.822577444612351,
			-0.50562785127261,
			-0.1506391898742,
			0.0469108047780652,
			0.10686681921146,
			0.418775235238371,
			-0.80431220789494,
			-0.61770059163276,
			0.449670078626438,
			0.73859755163018,
			0.193103509520431,
			-0.19737416322137,
			0.185525177052012,
			-0.38795618874004,
			0.755740635320935,
			-1.10138884584503,
			-0.49908715573412,
			0.0258793271869496,
			0.110650319284146,
			-0.33521726447243,
			0.860398893821943,
			1.30302308681047,
			1.00700210237141,
			-0.45868429369899,
			0.293820688796898,
			0.146695160550278,
			0.269796711895038,
			0.0226906571616054,
			-0.51457032452143,
			0.864844105762186,
			-0.562743480298,
			0.498932700449624,
			0.25747385827283,
			1.26396795496874,
			0.162187800721509,
			-0.24916565772039,
			-1.05919126359206,
			1.00997761636144,
			0.54651705801312,
			1.09169321348692,
			0.40856896375207,
			0.742098157039293,
			1.19231210978937,
			-0.36207366682914,
			0.131124575416002,
			0.694498880407889,
			-0.88033036997127,
			0.440504082764857,
			0.441528774104493,
